{"learner":{"attributes":{"scikit_learn":"{\"_estimator_type\": \"regressor\"}"},"feature_names":[],"feature_types":[],"gradient_booster":{"model":{"gbtree_model_param":{"num_parallel_tree":"1","num_trees":"100"},"iteration_indptr":[0,1,2,3,4,5,6,7,8,9,10,11,12,13,14,15,16,17,18,19,20,21,22,23,24,25,26,27,28,29,30,31,32,33,34,35,36,37,38,39,40,41,42,43,44,45,46,47,48,49,50,51,52,53,54,55,56,57,58,59,60,61,62,63,64,65,66,67,68,69,70,71,72,73,74,75,76,77,78,79,80,81,82,83,84,85,86,87,88,89,90,91,92,93,94,95,96,97,98,99,100],"tree_info":[0,0,0,0,0,0,0,0,0,0,0,0,0,0,0,0,0,0,0,0,0,0,0,0,0,0,0,0,0,0,0,0,0,0,0,0,0,0,0,0,0,0,0,0,0,0,0,0,0,0,0,0,0,0,0,0,0,0,0,0,0,0,0,0,0,0,0,0,0,0,0,0,0,0,0,0,0,0,0,0,0,0,0,0,0,0,0,0,0,0,0,0,0,0,0,0,0,0,0,0],"trees":[{"base_weights":[-1.8752716E-7,9.1685313E-1,-1.3797309E0,1.8065683E0,4.4419417E-1,-9.400202E-1,-2.4392488E0,1.9251498E0,1.0113763E0,7.9000723E-1,-2.116065E-2,-4.327481E-1,-1.2562082E0,-1.9474354E0,-2.9795275E0,6.455346E-1,1.6418785E0,1.5694854E0,1.2888584E-1,1.09273E0,2.2064582E-1,6.961639E-2,-1.6391563E0,-2.0519482E-1,-6.086196E-1,-1.179961E0,-6.9574165E-1,-2.210592E0,-4.7875655E-1,-1.0249E0,-2.350065E0,6.314764E-2,1.6606615E0,6.314764E-2,4.9734953E-1,-1.3027854E-1,4.3227223E-1,9.707785E-1,5.896572E-1,5.165034E-1,-7.376406E-3,3.017313E-1,-3.220154E-1,-2.1632125E0,-2.1934383E-1,-5.7570703E-2,-4.9601454E-1,3.6787413E-2,-6.68129E-1,-1.3086332E0,-6.501633E-1,-1.6185236E-1,-6.7675656E-1,-7.250887E-1,-1.6185236E-1,5.040094E-1,6.314764E-2,-1.5803147E-2,1.9103624E-1,1.9340183E-1,3.058781E-1,2.9366577E-1,6.927888E-2,-5.2756533E-2,1.0327067E-1,5.4311072E-3,1.8218225E-1,-1.3771342E-1,1.0131332E-2,-7.3027855E-1,-1.6185236E-1,-8.6852364E-2,-1.185236E-2,1.3138363E-2,-1.0603262E-1,-2.044042E-1,-1.8963777E-2,6.314764E-2,-1.777854E-2,-3.4475395E-1,-1.7309693E-1,-1.8633425E-1,-4.1054663E-1,1.0103623E-1,-2.5093496E-1],"categories":[],"categories_nodes":[],"categories_segments":[],"categories_sizes":[],"default_left":[0,0,0,0,0,0,0,0,0,0,0,0,0,0,0,0,0,0,0,0,0,0,0,0,0,0,0,0,0,0,0,0,0,0,0,0,0,0,0,0,0,0,0,0,0,0,0,0,0,0,0,0,0,0,0,0,0,0,0,0,0,0,0,0,0,0,0,0,0,0,0,0,0,0,0,0,0,0,0,0,0,0,0,0,0],"id":0,"left_children":[1,3,5,7,9,11,13,15,17,19,21,23,25,27,29,-1,31,33,35,37,39,41,43,45,47,49,-1,51,-1,-1,53,-1,55,-1,-1,-1,57,59,-1,61,63,65,67,69,71,73,75,77,79,81,83,-1,-1,-1,-1,-1,-1,-1,-1,-1,-1,-1,-1,-1,-1,-1,-1,-1,-1,-1,-1,-1,-1,-1,-1,-1,-1,-1,-1,-1,-1,-1,-1,-1,-1],"loss_changes":[9.791183E2,1.9474484E2,1.4166443E2,1.3234497E1,4.909907E1,3.474292E1,1.8112E1,5.390564E0,1.1125811E1,2.9921661E1,1.935498E1,3.3168468E0,8.204651E0,1.0982513E0,3.2444458E0,0E0,1.424881E0,1.3319092E0,1.8962327E0,1.0225906E1,4.18646E0,1.1460109E1,4.733944E0,1.6457921E0,1.8681545E0,7.8749847E0,0E0,7.4954987E-1,0E0,0E0,1.1184692E0,0E0,1.4721985E0,0E0,0E0,0E0,7.278007E-1,9.6643066E-1,0E0,3.3391418E0,2.1931443E0,6.8351765E0,2.3069015E0,8.8721657E-1,2.6416227E-2,8.252377E-1,9.99691E-1,9.589515E-2,1.2660103E0,3.3475037E0,5.2458076E0,0E0,0E0,0E0,0E0,0E0,0E0,0E0,0E0,0E0,0E0,0E0,0E0,0E0,0E0,0E0,0E0,0E0,0E0,0E0,0E0,0E0,0E0,0E0,0E0,0E0,0E0,0E0,0E0,0E0,0E0,0E0,0E0,0E0,0E0],"parents":[2147483647,0,0,1,1,2,2,3,3,4,4,5,5,6,6,7,7,8,8,9,9,10,10,11,11,12,12,13,13,14,14,16,16,17,17,18,18,19,19,20,20,21,21,22,22,23,23,24,24,25,25,27,27,30,30,32,32,36,36,37,37,39,39,40,40,41,41,42,42,43,43,44,44,45,45,46,46,47,47,48,48,49,49,50,50],"right_children":[2,4,6,8,10,12,14,16,18,20,22,24,26,28,30,-1,32,34,36,38,40,42,44,46,48,50,-1,52,-1,-1,54,-1,56,-1,-1,-1,58,60,-1,62,64,66,68,70,72,74,76,78,80,82,84,-1,-1,-1,-1,-1,-1,-1,-1,-1,-1,-1,-1,-1,-1,-1,-1,-1,-1,-1,-1,-1,-1,-1,-1,-1,-1,-1,-1,-1,-1,-1,-1,-1,-1],"split_conditions":[3.025714E-1,-8.9026564E-1,1.2476919E0,2E1,-1.884583E-1,5.2547306E-1,1.02E2,-1.2479781E0,-1.093386E0,1.3E1,1.1126636E0,-2.5376437E-2,1.5269667E0,3.5E1,1E0,6.455346E-1,1.1E1,1E0,9.7E1,9E0,-5.130013E-1,1.6E1,1.6015496E0,9.6E1,1.4205867E-1,1.22E2,-6.9574165E-1,1E0,-4.7875655E-1,-1.0249E0,8E0,6.314764E-2,-4.5612025E-1,6.314764E-2,4.9734953E-1,-1.3027854E-1,-9.9823475E-1,6.2E1,5.896572E-1,-8.3061475E-1,-2.5465944E-1,1.19E2,1.51E2,2E0,6.1E1,2.4745525E-1,2.2E1,2E0,9.63089E-2,4.546005E-1,1.37E2,-1.6185236E-1,-6.7675656E-1,-7.250887E-1,-1.6185236E-1,5.040094E-1,6.314764E-2,-1.5803147E-2,1.9103624E-1,1.9340183E-1,3.058781E-1,2.9366577E-1,6.927888E-2,-5.2756533E-2,1.0327067E-1,5.4311072E-3,1.8218225E-1,-1.3771342E-1,1.0131332E-2,-7.3027855E-1,-1.6185236E-1,-8.6852364E-2,-1.185236E-2,1.3138363E-2,-1.0603262E-1,-2.044042E-1,-1.8963777E-2,6.314764E-2,-1.777854E-2,-3.4475395E-1,-1.7309693E-1,-1.8633425E-1,-4.1054663E-1,1.0103623E-1,-2.5093496E-1],"split_indices":[6,4,6,1,6,4,2,4,5,1,4,3,4,2,0,0,2,0,2,1,6,1,3,2,4,2,0,0,0,0,1,0,6,0,0,0,4,2,0,3,6,2,2,1,2,4,1,0,5,6,2,0,0,0,0,0,0,0,0,0,0,0,0,0,0,0,0,0,0,0,0,0,0,0,0,0,0,0,0,0,0,0,0,0,0],"split_type":[0,0,0,0,0,0,0,0,0,0,0,0,0,0,0,0,0,0,0,0,0,0,0,0,0,0,0,0,0,0,0,0,0,0,0,0,0,0,0,0,0,0,0,0,0,0,0,0,0,0,0,0,0,0,0,0,0,0,0,0,0,0,0,0,0,0,0,0,0,0,0,0,0,0,0,0,0,0,0,0,0,0,0,0,0],"sum_hessian":[7.72E2,4.64E2,3.08E2,1.6E2,3.04E2,2.19E2,8.9E1,1.38E2,2.2E1,1.74E2,1.3E2,8.5E1,1.34E2,4.9E1,4E1,7.3E1,6.5E1,1.3E1,9E0,1.13E2,6.1E1,1.24E2,6E0,3.8E1,4.7E1,1.27E2,7E0,2.5E1,2.4E1,2.1E1,1.9E1,1E0,6.4E1,1E0,1.2E1,3E0,6E0,1.01E2,1.2E1,2.6E1,3.5E1,7.8E1,4.6E1,4E0,2E0,2.6E1,1.2E1,4E0,4.3E1,1.01E2,2.6E1,1E0,2.4E1,1.8E1,1E0,6.3E1,1E0,2E0,4E0,1.5E1,8.6E1,9E0,1.7E1,2.4E1,1.1E1,4.1E1,3.7E1,3.3E1,1.3E1,3E0,1E0,1E0,1E0,2E1,6E0,8E0,4E0,1E0,3E0,5E0,3.8E1,9E0,9.2E1,4E0,2.2E1],"tree_param":{"num_deleted":"0","num_feature":"7","num_nodes":"85","size_leaf_vector":"1"}},{"base_weights":[-3.890901E-3,8.901809E-1,-7.191393E-1,1.3811119E0,6.1069834E-1,-3.4424248E-1,-1.5358082E0,1.5946456E0,1.2252663E0,8.0384856E-1,5.4020222E-2,-4.0121723E-2,-6.828333E-1,-1.0451471E0,-1.870389E0,5.1741683E-1,1.1848232E0,-3.3368254E-1,1.2712638E0,1.0803407E0,6.544228E-1,-2.5492668E-1,2.9579595E-1,1.1632351E-1,-3.0916312E-1,-8.174279E-1,-3.6020303E-1,-4.1609034E-1,-1.1393586E0,-1.4606309E0,-2.2532015E0,4.2049024E-1,6.260009E-1,-1.8368255E-1,1.3049911E0,4.5781708E-1,9.2409873E-1,1.7546022E-1,7.600834E-1,-2.234478E-2,-5.244102E-1,2.3154879E-1,3.5275584E-1,5.8412313E-2,8.773705E-1,-7.2922194E-1,-8.582109E-2,-7.073771E-1,-5.481333E-1,6.28206E-1,-6.040738E-1,-4.47043E-1,-2.5270345E-2,-1.2298616E0,-5.217978E-1,-7.406074E-1,-1.5184548E0,-6.865081E-1,-1.3757451E-1,5.367551E-2,2.0389013E-1,4.556723E-1,3.3463463E-1,2.0819746E-1,3.170135E-1,1.271329E-1,-6.0814224E-2,3.9624628E-1,1.6687405E-1,-1.1884882E-1,8.126558E-2,-1.6758075E-1,-2.2244168E-2,1.16625406E-1,2.099188E-2,7.277935E-2,-6.582095E-2,3.023756E-1,1.4112211E-2,-4.2717814E-2,-2.7460167E-1,-1.3861689E-2,-1.0378953E-1,-2.2296046E-1,7.459449E-2,3.1623045E-1,7.187243E-2,-4.8442152E-1,-8.812155E-2,-1.460518E-1,-2.5270345E-2,-1.4797404E-1,-3.8216308E-1,4.918676E-2,-2.333125E-1,-2.7020833E-1,-1.5038896E-2,-5.1717E-1,-3.6992735E-1],"categories":[],"categories_nodes":[],"categories_segments":[],"categories_sizes":[],"default_left":[0,0,0,0,0,0,0,0,0,0,0,0,0,0,0,0,0,0,0,0,0,0,0,0,0,0,0,0,0,0,0,0,0,0,0,0,0,0,0,0,0,0,0,0,0,0,0,0,0,0,0,0,0,0,0,0,0,0,0,0,0,0,0,0,0,0,0,0,0,0,0,0,0,0,0,0,0,0,0,0,0,0,0,0,0,0,0,0,0,0,0,0,0,0,0,0,0,0,0],"id":1,"left_children":[1,3,5,7,9,11,13,15,17,19,21,23,25,27,29,-1,31,-1,33,35,37,39,41,43,45,47,49,51,53,55,57,-1,59,-1,61,-1,63,65,67,69,71,73,-1,75,77,79,81,83,-1,85,87,89,-1,91,93,95,97,-1,-1,-1,-1,-1,-1,-1,-1,-1,-1,-1,-1,-1,-1,-1,-1,-1,-1,-1,-1,-1,-1,-1,-1,-1,-1,-1,-1,-1,-1,-1,-1,-1,-1,-1,-1,-1,-1,-1,-1,-1,-1],"loss_changes":[4.9496085E2,4.635562E1,1.3112294E2,2.1726532E0,2.3719055E1,3.0452457E1,2.020752E1,5.686188E-1,9.585602E0,6.068672E0,4.4077663E0,6.6441307E0,5.7849655E0,2.9039917E0,9.100861E0,0E0,9.399586E-1,0E0,5.5635147E0,2.4895859E0,5.3828506E0,1.6178839E0,1.593591E0,4.356065E0,5.3787913E0,9.596954E0,1.074438E1,5.479002E-2,2.0969276E0,5.8244324E-1,1.4113922E0,0E0,2.227068E-2,0E0,1.3061447E0,0E0,6.093178E-1,2.0579472E0,9.437889E0,1.7515343E0,1.4332747E-1,7.856021E-1,0E0,4.8631682E0,7.1137285E-1,2.054039E0,3.8593772E-1,3.2672043E0,0E0,1.2371106E0,1.0503262E1,7.449877E-2,0E0,7.333946E-1,1.5314426E0,5.075309E-1,4.345703E-2,0E0,0E0,0E0,0E0,0E0,0E0,0E0,0E0,0E0,0E0,0E0,0E0,0E0,0E0,0E0,0E0,0E0,0E0,0E0,0E0,0E0,0E0,0E0,0E0,0E0,0E0,0E0,0E0,0E0,0E0,0E0,0E0,0E0,0E0,0E0,0E0,0E0,0E0,0E0,0E0,0E0,0E0],"parents":[2147483647,0,0,1,1,2,2,3,3,4,4,5,5,6,6,7,7,8,8,9,9,10,10,11,11,12,12,13,13,14,14,16,16,18,18,19,19,20,20,21,21,22,22,23,23,24,24,25,25,26,26,27,27,28,28,29,29,30,30,32,32,34,34,36,36,37,37,38,38,39,39,40,40,41,41,43,43,44,44,45,45,46,46,47,47,49,49,50,50,51,51,53,53,54,54,55,55,56,56],"right_children":[2,4,6,8,10,12,14,16,18,20,22,24,26,28,30,-1,32,-1,34,36,38,40,42,44,46,48,50,52,54,56,58,-1,60,-1,62,-1,64,66,68,70,72,74,-1,76,78,80,82,84,-1,86,88,90,-1,92,94,96,98,-1,-1,-1,-1,-1,-1,-1,-1,-1,-1,-1,-1,-1,-1,-1,-1,-1,-1,-1,-1,-1,-1,-1,-1,-1,-1,-1,-1,-1,-1,-1,-1,-1,-1,-1,-1,-1,-1,-1,-1,-1,-1],"split_conditions":[-1.259567E-1,-1.0550424E0,1.0065728E0,-1.4146893E0,2E1,4.1904017E-1,1.2102401E0,1.3E1,-1.7052631E0,-7.37436E-1,1.47E2,2E1,1.22E2,7.2958905E-1,1.02E2,5.1741683E-1,-1.2392567E0,-3.3368254E-1,-2.015213E0,1E0,6.2E1,8.7E1,1.6096144E0,4.2018607E-1,2.2E1,1.07E2,1.38E2,4.451501E-1,1.21E2,9.6586055E-1,8E0,4.2049024E-1,1E0,-1.8368255E-1,-1.322007E0,4.5781708E-1,1.5E2,3.1E1,1E0,8E1,3E0,-4.9993402E-1,3.5275584E-1,7.970643E-2,2.9010943E-1,-1.2323795E-1,4.7997677E-1,1.06E2,-5.481333E-1,5.9362654E-2,1.53E2,1.1572001E0,-2.5270345E-2,1E1,4.8566124E-1,2E0,3.5E1,-6.865081E-1,-1.3757451E-1,5.367551E-2,2.0389013E-1,4.556723E-1,3.3463463E-1,2.0819746E-1,3.170135E-1,1.271329E-1,-6.0814224E-2,3.9624628E-1,1.6687405E-1,-1.1884882E-1,8.126558E-2,-1.6758075E-1,-2.2244168E-2,1.16625406E-1,2.099188E-2,7.277935E-2,-6.582095E-2,3.023756E-1,1.4112211E-2,-4.2717814E-2,-2.7460167E-1,-1.3861689E-2,-1.0378953E-1,-2.2296046E-1,7.459449E-2,3.1623045E-1,7.187243E-2,-4.8442152E-1,-8.812155E-2,-1.460518E-1,-2.5270345E-2,-1.4797404E-1,-3.8216308E-1,4.918676E-2,-2.333125E-1,-2.7020833E-1,-1.5038896E-2,-5.1717E-1,-3.6992735E-1],"split_indices":[6,5,6,6,1,4,4,1,4,4,2,1,2,4,2,0,3,0,5,0,2,2,3,5,1,2,2,3,2,5,1,0,0,0,5,0,2,2,0,2,0,4,0,4,6,4,3,2,0,6,2,6,0,2,3,1,2,0,0,0,0,0,0,0,0,0,0,0,0,0,0,0,0,0,0,0,0,0,0,0,0,0,0,0,0,0,0,0,0,0,0,0,0,0,0,0,0,0,0],"split_type":[0,0,0,0,0,0,0,0,0,0,0,0,0,0,0,0,0,0,0,0,0,0,0,0,0,0,0,0,0,0,0,0,0,0,0,0,0,0,0,0,0,0,0,0,0,0,0,0,0,0,0,0,0,0,0,0,0,0,0,0,0,0,0,0,0,0,0,0,0,0,0,0,0,0,0,0,0,0,0,0,0,0,0,0,0,0,0,0,0,0,0,0,0,0,0,0,0,0,0],"sum_hessian":[7.72E2,3.43E2,4.29E2,1.23E2,2.2E2,2.95E2,1.34E2,4.8E1,7.5E1,1.63E2,5.7E1,1.56E2,1.39E2,5.6E1,7.8E1,3.4E1,1.4E1,1E0,7.4E1,5.5E1,1.08E2,2.5E1,3.2E1,9.9E1,5.7E1,9.7E1,4.2E1,8E0,4.8E1,4E1,3.8E1,9E0,5E0,1E0,7.3E1,1.2E1,4.3E1,2E1,8.8E1,1.4E1,1.1E1,3.1E1,1E0,9.3E1,6E0,1.9E1,3.8E1,8.9E1,8E0,8E0,3.4E1,7E0,1E0,4.1E1,7E0,4E0,3.6E1,3.7E1,1E0,1E0,4E0,3.1E1,4.2E1,1.8E1,2.5E1,1.2E1,8E0,2.2E1,6.6E1,6E0,8E0,1E1,1E0,1.5E1,1.6E1,5.6E1,3.7E1,5E0,1E0,5E0,1.4E1,3.4E1,4E0,8.6E1,3E0,3E0,5E0,7E0,2.7E1,6E0,1E0,3E0,3.8E1,2E0,5E0,3E0,1E0,1.8E1,1.8E1],"tree_param":{"num_deleted":"0","num_feature":"7","num_nodes":"99","size_leaf_vector":"1"}},{"base_weights":[-3.442765E-3,5.9128386E-1,-5.509369E-1,8.602907E-1,2.9477477E-1,-1.8246573E-1,-9.8414904E-1,1.0743951E0,7.22241E-1,4.8613283E-1,-4.5686372E-4,1.0055647E-2,-3.2732224E-1,-8.2013714E-1,-1.476183E0,6.5963787E-1,1.1288941E0,8.1705433E-1,1.3430601E-1,8.9396167E-1,3.5896793E-1,-1.6469593E-1,2.0485625E-1,-8.548448E-2,7.474061E-1,-9.330682E-2,-4.1024837E-1,-9.2097473E-1,-2.9017976E-1,-3.676069E-1,-5.1134753E-1,3.2349417E-1,-5.8436107E-2,3.4184724E-1,6.919542E-2,3.528787E-1,7.005353E-1,-1.46913E-1,5.041939E-1,4.0762026E-2,3.3156705E-1,1.4971665E-1,5.127873E-1,8.74603E-2,-4.479981E-1,1.4698227E-1,2.9984245E-1,-1.8748989E-4,-8.0574936E-1,3.080052E-1,2.0693588E-1,1.371407E-1,-1.8193701E-1,-7.346037E-1,-2.7134165E-1,-7.6770484E-1,-1.2234454E0,-8.7748714E-2,-2.3077874E-1,1.19901545E-1,-2.8363016E-1,1.556221E-1,2.4260162E-1,-7.665825E-2,3.211327E-2,5.399065E-2,1.7468224E-1,2.4107898E-2,-2.3583913E-2,1.1661153E-2,2.5540736E-1,2.3658596E-1,1.22840695E-1,6.220232E-2,-8.003357E-2,-6.7005895E-2,-1.681285E-1,7.613823E-2,9.295222E-3,7.519273E-2,-3.3499192E-2,-3.085857E-1,-5.1412107E-3,1.2756644E-1,-2.4098493E-2,-1.5099786E-1,-1.867175E-2,-2.519622E-1,2.4200786E-2,-2.7940327E-2,-1.2006041E-1,-4.8211917E-2,-2.5528023E-1,-4.17775E-1,-1.8318036E-1,-1.2384077E-1,3.2753527E-2],"categories":[],"categories_nodes":[],"categories_segments":[],"categories_sizes":[],"default_left":[0,0,0,0,0,0,0,0,0,0,0,0,0,0,0,0,0,0,0,0,0,0,0,0,0,0,0,0,0,0,0,0,0,0,0,0,0,0,0,0,0,0,0,0,0,0,0,0,0,0,0,0,0,0,0,0,0,0,0,0,0,0,0,0,0,0,0,0,0,0,0,0,0,0,0,0,0,0,0,0,0,0,0,0,0,0,0,0,0,0,0,0,0,0,0,0,0],"id":2,"left_children":[1,3,5,7,9,11,13,15,17,19,21,23,25,27,29,31,33,35,37,39,41,43,45,47,49,51,53,55,57,-1,-1,-1,59,-1,-1,-1,61,63,65,67,-1,69,71,73,75,77,-1,79,81,-1,83,-1,85,87,89,91,93,95,-1,-1,-1,-1,-1,-1,-1,-1,-1,-1,-1,-1,-1,-1,-1,-1,-1,-1,-1,-1,-1,-1,-1,-1,-1,-1,-1,-1,-1,-1,-1,-1,-1,-1,-1,-1,-1,-1,-1],"loss_changes":[2.5202179E2,2.933847E1,6.414979E1,4.958084E0,1.0056325E1,6.110759E0,1.3718704E1,9.280243E-1,6.6352997E0,5.28014E0,2.4278898E0,6.756315E0,2.3874693E0,7.267746E0,4.8835754E-1,3.3700557E0,3.4635162E-1,3.528862E0,1.9464238E0,4.4611626E0,2.6269264E0,2.8966384E0,1.3247025E0,5.2219453E0,1.447897E0,1.7418878E0,3.9457436E0,4.5311966E0,2.2600472E0,0E0,0E0,0E0,2.4095666E0,0E0,0E0,0E0,1.172863E0,3.3077055E-1,9.773326E-2,3.467913E-2,0E0,2.8445535E0,1.0450153E0,9.895753E-1,3.5470748E-1,3.762257E-1,0E0,2.1810338E0,1.5641909E0,0E0,3.4768543E-1,0E0,1.122761E0,2.385003E0,1.478333E0,3.9553757E0,3.088585E0,1.1972837E0,0E0,0E0,0E0,0E0,0E0,0E0,0E0,0E0,0E0,0E0,0E0,0E0,0E0,0E0,0E0,0E0,0E0,0E0,0E0,0E0,0E0,0E0,0E0,0E0,0E0,0E0,0E0,0E0,0E0,0E0,0E0,0E0,0E0,0E0,0E0,0E0,0E0,0E0,0E0],"parents":[2147483647,0,0,1,1,2,2,3,3,4,4,5,5,6,6,7,7,8,8,9,9,10,10,11,11,12,12,13,13,14,14,15,15,16,16,17,17,18,18,19,19,20,20,21,21,22,22,23,23,24,24,25,25,26,26,27,27,28,28,32,32,36,36,37,37,38,38,39,39,41,41,42,42,43,43,44,44,45,45,47,47,48,48,50,50,52,52,53,53,54,54,55,55,56,56,57,57],"right_children":[2,4,6,8,10,12,14,16,18,20,22,24,26,28,30,32,34,36,38,40,42,44,46,48,50,52,54,56,58,-1,-1,-1,60,-1,-1,-1,62,64,66,68,-1,70,72,74,76,78,-1,80,82,-1,84,-1,86,88,90,92,94,96,-1,-1,-1,-1,-1,-1,-1,-1,-1,-1,-1,-1,-1,-1,-1,-1,-1,-1,-1,-1,-1,-1,-1,-1,-1,-1,-1,-1,-1,-1,-1,-1,-1,-1,-1,-1,-1,-1,-1],"split_conditions":[-4.2655997E-2,-7.7813715E-1,7.757002E-1,-1.3378795E0,1.3E1,3.638117E-1,1.5637069E0,5E1,2E1,1E0,1.57E2,7.5645095E-1,1E0,1.22E2,2.0513885E0,-1.7374283E0,-1.2049054E0,1E0,2E0,6.7E1,1.34E2,-8.150689E-2,1.6096144E0,4.6242094E-1,6E0,3.1E1,2E0,1E2,3E0,-3.676069E-1,-5.1134753E-1,3.2349417E-1,-1.9081079E0,3.4184724E-1,6.919542E-2,3.528787E-1,3E0,9.8E1,-1.4917058E0,3.1E1,3.3156705E-1,1.7855535E0,-8.657445E-1,9.5E1,4.6E1,-4.490412E-1,2.9984245E-1,1E0,6.3173676E-1,3.080052E-1,8.9E1,1.371407E-1,4.4E1,7.4503E-1,3.5058612E-1,1E0,2E0,1.1345898E0,-2.3077874E-1,1.19901545E-1,-2.8363016E-1,1.556221E-1,2.4260162E-1,-7.665825E-2,3.211327E-2,5.399065E-2,1.7468224E-1,2.4107898E-2,-2.3583913E-2,1.1661153E-2,2.5540736E-1,2.3658596E-1,1.22840695E-1,6.220232E-2,-8.003357E-2,-6.7005895E-2,-1.681285E-1,7.613823E-2,9.295222E-3,7.519273E-2,-3.3499192E-2,-3.085857E-1,-5.1412107E-3,1.2756644E-1,-2.4098493E-2,-1.5099786E-1,-1.867175E-2,-2.519622E-1,2.4200786E-2,-2.7940327E-2,-1.2006041E-1,-4.8211917E-2,-2.5528023E-1,-4.17775E-1,-1.8318036E-1,-1.2384077E-1,3.2753527E-2],"split_indices":[6,5,4,5,1,6,4,2,1,0,2,3,0,2,6,4,4,0,0,2,2,3,3,4,1,2,0,2,0,0,0,0,3,0,0,0,0,2,6,2,0,3,6,2,2,4,0,0,5,0,2,0,2,4,4,0,1,5,0,0,0,0,0,0,0,0,0,0,0,0,0,0,0,0,0,0,0,0,0,0,0,0,0,0,0,0,0,0,0,0,0,0,0,0,0,0,0],"split_type":[0,0,0,0,0,0,0,0,0,0,0,0,0,0,0,0,0,0,0,0,0,0,0,0,0,0,0,0,0,0,0,0,0,0,0,0,0,0,0,0,0,0,0,0,0,0,0,0,0,0,0,0,0,0,0,0,0,0,0,0,0,0,0,0,0,0,0,0,0,0,0,0,0,0,0,0,0,0,0,0,0,0,0,0,0,0,0,0,0,0,0,0,0,0,0,0,0],"sum_hessian":[7.72E2,3.7E2,4.02E2,1.93E2,1.77E2,2.18E2,1.84E2,7.3E1,1.2E2,1.07E2,7E1,9.4E1,1.24E2,1.4E2,4.4E1,1E1,6.3E1,1.03E2,1.7E1,2.4E1,8.3E1,3.9E1,3.1E1,8.4E1,1E1,3.3E1,9.1E1,1.17E2,2.3E1,2.4E1,2E1,6E0,4E0,6.2E1,1E0,2.3E1,8E1,1E1,7E0,5E0,1.9E1,3.6E1,4.7E1,2.1E1,1.8E1,3E1,1E0,7.6E1,8E0,6E0,4E0,4E0,2.9E1,2.6E1,6.5E1,8E1,3.7E1,1.7E1,6E0,3E0,1E0,3.2E1,4.8E1,7E0,3E0,2E0,5E0,4E0,1E0,3.2E1,4E0,1.1E1,3.6E1,1.6E1,5E0,7E0,1.1E1,1.5E1,1.5E1,2.3E1,5.3E1,6E0,2E0,2E0,2E0,7E0,2.2E1,2.3E1,3E0,2.8E1,3.7E1,1E1,7E1,2.8E1,9E0,6E0,1.1E1],"tree_param":{"num_deleted":"0","num_feature":"7","num_nodes":"97","size_leaf_vector":"1"}},{"base_weights":[-2.1216867E-3,2.950377E-1,-5.5681133E-1,5.3264946E-1,2.934829E-2,-3.6803398E-1,-9.240984E-1,7.039921E-1,3.8259533E-1,6.0479507E-2,-5.165082E-1,-2.1914299E-1,-4.9894544E-1,-7.1366704E-1,-1.1233467E0,8.215714E-1,6.1778706E-1,4.6551874E-1,1.00622006E-1,2.0028086E-1,-8.742354E-2,-3.7539542E-1,-1.7093353E-1,-3.358883E-2,-2.9463914E-1,-5.449705E-1,4.384997E-1,-5.992128E-1,-1.130339E0,-1.306384E0,-7.4502736E-1,2.945567E-1,6.771735E-1,-2.410856E-1,6.47855E-1,5.937541E-1,3.7569705E-1,5.2183066E-2,2.548661E-1,1.3602142E-1,5.702763E-1,-1.394783E-1,1.4231011E-1,4.0066276E-2,-4.9744982E-1,3.5014725E-1,-9.886516E-2,-5.8664596E-1,-2.0333217E-1,-5.600232E-1,1.2146577E-1,1.7498888E-1,4.426098E-2,-6.902527E-1,-4.407934E-1,-5.651558E-2,-1.2245351E0,-4.1529655E-1,-2.3307057E-1,-4.8729122E-1,-4.3825415E-1,2.105533E-1,6.882334E-2,-1.7411542E-1,2.0178922E-1,2.3005642E-1,1.2945704E-1,7.342918E-2,1.6620085E-1,-6.500563E-2,3.5987105E-2,6.6817746E-2,-1.7808777E-1,2.0507078E-1,-5.5884127E-2,2.0691822E-3,-1.1216289E-1,1.1835737E-2,1.0271682E-1,8.128464E-2,-3.1942952E-2,-1.6970925E-1,-4.390601E-2,2.9688908E-2,1.20266296E-1,-1.1135169E-1,5.7230727E-3,8.0552965E-2,-2.0192453E-1,-3.3974823E-2,-1.0828171E-1,-2.323195E-1,-1.4246207E-1,-2.3327874E-1,-1.4039586E-1,-2.9495645E-2,-1.8559791E-1,-3.9655802E-1,-8.14892E-2,-1.9128843E-1,-1.090181E-1],"categories":[],"categories_nodes":[],"categories_segments":[],"categories_sizes":[],"default_left":[0,0,0,0,0,0,0,0,0,0,0,0,0,0,0,0,0,0,0,0,0,0,0,0,0,0,0,0,0,0,0,0,0,0,0,0,0,0,0,0,0,0,0,0,0,0,0,0,0,0,0,0,0,0,0,0,0,0,0,0,0,0,0,0,0,0,0,0,0,0,0,0,0,0,0,0,0,0,0,0,0,0,0,0,0,0,0,0,0,0,0,0,0,0,0,0,0,0,0,0,0],"id":3,"left_children":[1,3,5,7,9,11,13,15,17,19,21,23,25,27,29,31,33,35,37,39,41,-1,43,45,47,49,51,53,55,57,59,-1,61,-1,63,65,67,69,-1,71,73,75,77,79,81,83,85,87,89,91,-1,-1,-1,93,95,-1,97,-1,-1,99,-1,-1,-1,-1,-1,-1,-1,-1,-1,-1,-1,-1,-1,-1,-1,-1,-1,-1,-1,-1,-1,-1,-1,-1,-1,-1,-1,-1,-1,-1,-1,-1,-1,-1,-1,-1,-1,-1,-1,-1,-1],"loss_changes":[1.2757883E2,3.1802353E1,1.8380486E1,6.569702E0,4.092608E0,3.3991356E0,3.0137634E0,7.3916626E-1,3.3201942E0,4.7111983E0,3.087219E0,1.1948452E0,4.3378353E0,1.5641098E0,2.1428032E0,4.6920395E-1,3.7260303E0,1.05546E0,1.1891012E0,2.7041874E0,1.3472681E0,0E0,7.0887965E-1,6.8588823E-1,1.5071139E0,1.5278549E0,1.2459475E-1,2.582178E-1,5.678711E-1,1.2125397E-1,2.4245167E0,0E0,1.5934372E-1,0E0,2.6422386E0,9.0470123E-1,1.4519367E0,6.273281E-1,0E0,6.521841E0,1.5844483E0,3.1248016E0,4.1866526E-1,2.6568884E-1,1.3054371E-2,1.1307687E-2,7.4575955E-1,1.2155542E0,6.406115E-1,1.275116E0,0E0,0E0,0E0,8.260441E-2,9.747236E-1,0E0,3.8287258E-1,0E0,0E0,2.9059172E-2,0E0,0E0,0E0,0E0,0E0,0E0,0E0,0E0,0E0,0E0,0E0,0E0,0E0,0E0,0E0,0E0,0E0,0E0,0E0,0E0,0E0,0E0,0E0,0E0,0E0,0E0,0E0,0E0,0E0,0E0,0E0,0E0,0E0,0E0,0E0,0E0,0E0,0E0,0E0,0E0,0E0],"parents":[2147483647,0,0,1,1,2,2,3,3,4,4,5,5,6,6,7,7,8,8,9,9,10,10,11,11,12,12,13,13,14,14,15,15,16,16,17,17,18,18,19,19,20,20,22,22,23,23,24,24,25,25,26,26,27,27,28,28,29,29,30,30,32,32,34,34,35,35,36,36,37,37,39,39,40,40,41,41,42,42,43,43,44,44,45,45,46,46,47,47,48,48,49,49,53,53,54,54,56,56,59,59],"right_children":[2,4,6,8,10,12,14,16,18,20,22,24,26,28,30,32,34,36,38,40,42,-1,44,46,48,50,52,54,56,58,60,-1,62,-1,64,66,68,70,-1,72,74,76,78,80,82,84,86,88,90,92,-1,-1,-1,94,96,-1,98,-1,-1,100,-1,-1,-1,-1,-1,-1,-1,-1,-1,-1,-1,-1,-1,-1,-1,-1,-1,-1,-1,-1,-1,-1,-1,-1,-1,-1,-1,-1,-1,-1,-1,-1,-1,-1,-1,-1,-1,-1,-1,-1,-1],"split_conditions":[4.546005E-1,-4.2966828E-1,1.2102401E0,-1.0550424E0,1.1126636E0,6.43229E-1,1.02E2,-1.4146893E0,2E1,1.3E1,1.479284E0,1E0,1.4037786E0,3E0,1.06E2,1.68E2,-1.7052631E0,-7.7813715E-1,1.6096144E0,7.899215E-1,1.84E2,-3.7539542E-1,1.5269667E0,3.1E1,2E0,3E1,3E0,1.3149463E0,7.5645095E-1,1E0,3E0,2.945567E-1,-1.4578675E0,-2.410856E-1,-2.015213E0,2E0,1.64E2,-1.2134295E0,2.548661E-1,2.8289634E-1,3.1437263E-1,9.5E1,2.769761E-1,1.6096144E0,2.1E1,-2.1442436E-1,4.4E1,6.581234E-2,1.4327249E-1,2.8E1,1.2146577E-1,1.7498888E-1,4.426098E-2,2E0,1.3964319E0,-5.651558E-2,7.2E1,-4.1529655E-1,-2.3307057E-1,1.357719E0,-4.3825415E-1,2.105533E-1,6.882334E-2,-1.7411542E-1,2.0178922E-1,2.3005642E-1,1.2945704E-1,7.342918E-2,1.6620085E-1,-6.500563E-2,3.5987105E-2,6.6817746E-2,-1.7808777E-1,2.0507078E-1,-5.5884127E-2,2.0691822E-3,-1.1216289E-1,1.1835737E-2,1.0271682E-1,8.128464E-2,-3.1942952E-2,-1.6970925E-1,-4.390601E-2,2.9688908E-2,1.20266296E-1,-1.1135169E-1,5.7230727E-3,8.0552965E-2,-2.0192453E-1,-3.3974823E-2,-1.0828171E-1,-2.323195E-1,-1.4246207E-1,-2.3327874E-1,-1.4039586E-1,-2.9495645E-2,-1.8559791E-1,-3.9655802E-1,-8.14892E-2,-1.9128843E-1,-1.090181E-1],"split_indices":[6,6,4,5,4,4,2,6,1,1,5,0,5,0,2,2,4,5,3,3,2,0,4,2,0,1,1,3,3,0,0,0,4,0,5,0,2,6,0,4,6,2,5,3,1,3,2,4,3,2,0,0,0,1,3,0,2,0,0,4,0,0,0,0,0,0,0,0,0,0,0,0,0,0,0,0,0,0,0,0,0,0,0,0,0,0,0,0,0,0,0,0,0,0,0,0,0,0,0,0,0],"split_type":[0,0,0,0,0,0,0,0,0,0,0,0,0,0,0,0,0,0,0,0,0,0,0,0,0,0,0,0,0,0,0,0,0,0,0,0,0,0,0,0,0,0,0,0,0,0,0,0,0,0,0,0,0,0,0,0,0,0,0,0,0,0,0,0,0,0,0,0,0,0,0,0,0,0,0,0,0,0,0,0,0,0,0,0,0,0,0,0,0,0,0,0,0,0,0,0,0,0,0,0,0],"sum_hessian":[7.72E2,5.03E2,2.69E2,2.65E2,2.38E2,1.79E2,9E1,1.22E2,1.43E2,2.26E2,1.2E1,8.5E1,9.4E1,4.6E1,4.4E1,4.8E1,7.4E1,1.1E2,3.3E1,1.16E2,1.1E2,3E0,9E0,2.5E1,6E1,9E1,4E0,3.8E1,8E0,2.8E1,1.6E1,2E1,2.8E1,1E0,7.3E1,4.3E1,6.7E1,3.2E1,1E0,1E2,1.6E1,9E1,2E1,6E0,3E0,3E0,2.2E1,1.3E1,4.7E1,8.9E1,1E0,2E0,2E0,2.2E1,1.6E1,1E0,7E0,2.3E1,5E0,1.3E1,3E0,2.6E1,2E0,1E0,7.2E1,1.9E1,2.4E1,4E1,2.7E1,6E0,2.6E1,9E1,1E1,1.4E1,2E0,5.6E1,3.4E1,1.4E1,6E0,2E0,4E0,2E0,1E0,1E0,2E0,6E0,1.6E1,1E0,1.2E1,3.1E1,1.6E1,2.3E1,6.6E1,1.4E1,8E0,6E0,1E1,6E0,1E0,4E0,9E0],"tree_param":{"num_deleted":"0","num_feature":"7","num_nodes":"101","size_leaf_vector":"1"}},{"base_weights":[-4.170032E-3,2.9994005E-1,-2.8412208E-1,4.3420643E-1,1.5191974E-1,-9.061813E-2,-5.116531E-1,7.299174E-1,4.03525E-1,2.5191486E-1,-2.3252494E-3,-1.1591414E-1,3.191428E-1,-4.3340695E-1,-8.234661E-1,2.5116095E-1,-1.4799815E-1,6.071104E-1,3.61475E-1,5.2406657E-1,1.6791835E-1,-2.2990482E-2,2.1663617E-1,1.1255119E-2,-2.2599977E-1,4.366944E-1,-2.1826069E-1,-5.401859E-1,-2.217815E-1,-6.972036E-1,-3.7408602E-1,6.215349E-1,3.04837E-2,1.2821794E-1,4.5099887E-1,-3.036642E-2,6.6419315E-1,7.470658E-1,1.2180693E-1,6.915129E-2,-2.4128087E-1,2.1412872E-1,-7.0055105E-2,-5.7478935E-1,-1.8958902E-1,1.5533414E-1,4.787135E-2,-1.5554667E-2,-8.266264E-2,-6.8476987E-1,-3.7867638E-1,1.308214E-1,-2.79538E-1,-2.3746835E-1,-5.6353915E-2,1.1454887E-1,2.049763E-1,1.9904647E-2,1.7554605E-1,1.6107251E-1,1.0849145E-1,1.095686E-3,-3.0068995E-2,2.1126924E-1,9.8395444E-2,1.8553091E-2,2.6152244E-1,5.19759E-2,-3.2773923E-2,1.0324844E-2,1.3800041E-1,-8.6274125E-2,1.0270651E-1,3.2409303E-2,2.4711217E-1,-2.8410308E-2,1.535812E-1,-2.8456017E-1,-5.026119E-2,-1.9756367E-2,-7.356378E-2,1.2567402E-3,2.0285368E-2,2.1671059E-2,-2.1514271E-1,-1.480034E-1,-6.95518E-3,1.0736924E-1,-1.3560534E-3,-9.046034E-2,1.0324592E-1],"categories":[],"categories_nodes":[],"categories_segments":[],"categories_sizes":[],"default_left":[0,0,0,0,0,0,0,0,0,0,0,0,0,0,0,0,0,0,0,0,0,0,0,0,0,0,0,0,0,0,0,0,0,0,0,0,0,0,0,0,0,0,0,0,0,0,0,0,0,0,0,0,0,0,0,0,0,0,0,0,0,0,0,0,0,0,0,0,0,0,0,0,0,0,0,0,0,0,0,0,0,0,0,0,0,0,0,0,0,0,0],"id":4,"left_children":[1,3,5,7,9,11,13,15,17,19,21,23,25,27,29,-1,-1,31,33,35,37,39,-1,41,43,45,47,49,51,53,-1,55,-1,57,59,61,63,65,67,69,71,73,75,77,79,-1,81,-1,-1,83,85,87,89,-1,-1,-1,-1,-1,-1,-1,-1,-1,-1,-1,-1,-1,-1,-1,-1,-1,-1,-1,-1,-1,-1,-1,-1,-1,-1,-1,-1,-1,-1,-1,-1,-1,-1,-1,-1,-1,-1],"loss_changes":[6.589554E1,7.3073425E0,1.7696976E1,1.4655914E0,2.7460132E0,2.3069973E0,4.1567726E0,2.6440382E0,1.3043613E0,2.380857E0,1.0795316E0,2.9004414E0,9.1655755E-1,3.2697678E0,1.0555592E0,0E0,0E0,1.4829922E-1,3.0744858E0,1.9624381E0,2.1522486E0,1.4246411E0,0E0,1.6150836E0,1.3006916E0,3.2202268E-1,1.4310375E-2,2.0525093E0,1.0955551E0,1.2931604E0,0E0,1.5335846E-1,0E0,1.1767944E0,6.349411E-1,1.4626076E-2,3.8243294E-2,4.586718E-1,9.579829E-1,6.629801E-1,6.6591823E-1,1.7219106E0,1.0525424E0,1.3631678E0,6.858716E-1,0E0,2.304458E-3,0E0,0E0,1.3016186E0,1.9859838E0,2.4748042E-1,7.211287E-1,0E0,0E0,0E0,0E0,0E0,0E0,0E0,0E0,0E0,0E0,0E0,0E0,0E0,0E0,0E0,0E0,0E0,0E0,0E0,0E0,0E0,0E0,0E0,0E0,0E0,0E0,0E0,0E0,0E0,0E0,0E0,0E0,0E0,0E0,0E0,0E0,0E0,0E0],"parents":[2147483647,0,0,1,1,2,2,3,3,4,4,5,5,6,6,7,7,8,8,9,9,10,10,11,11,12,12,13,13,14,14,17,17,18,18,19,19,20,20,21,21,23,23,24,24,25,25,26,26,27,27,28,28,29,29,31,31,33,33,34,34,35,35,36,36,37,37,38,38,39,39,40,40,41,41,42,42,43,43,44,44,46,46,49,49,50,50,51,51,52,52],"right_children":[2,4,6,8,10,12,14,16,18,20,22,24,26,28,30,-1,-1,32,34,36,38,40,-1,42,44,46,48,50,52,54,-1,56,-1,58,60,62,64,66,68,70,72,74,76,78,80,-1,82,-1,-1,84,86,88,90,-1,-1,-1,-1,-1,-1,-1,-1,-1,-1,-1,-1,-1,-1,-1,-1,-1,-1,-1,-1,-1,-1,-1,-1,-1,-1,-1,-1,-1,-1,-1,-1,-1,-1,-1,-1,-1,-1],"split_conditions":[-4.2655997E-2,-7.7813715E-1,7.757002E-1,-1.8504725E0,1.3E1,9.1038793E-1,1.6187931E0,-1.31672E0,1E0,1E0,1.8346694E0,2.4745525E-1,7.012779E-1,5E0,3E0,2.5116095E-1,-1.4799815E-1,2E1,2E0,6.7E1,-1.1709057E0,2.3305085E-2,2.1663617E-1,1E0,1.1380366E-1,1.6E1,1E0,9.496016E-1,1E0,2E0,-3.7408602E-1,2E0,3.04837E-2,-8.2041615E-1,-1.065762E0,3.1E1,1.3436022E0,-9.248756E-1,-2.0217891E-1,2.2448252E-1,3.2E1,1.57E2,2.769761E-1,1.4E1,1E0,1.5533414E-1,2.1E1,-1.5554667E-2,-8.266264E-2,4.4070992E-1,2E0,1.0742439E0,3.2E1,-2.3746835E-1,-5.6353915E-2,1.1454887E-1,2.049763E-1,1.9904647E-2,1.7554605E-1,1.6107251E-1,1.0849145E-1,1.095686E-3,-3.0068995E-2,2.1126924E-1,9.8395444E-2,1.8553091E-2,2.6152244E-1,5.19759E-2,-3.2773923E-2,1.0324844E-2,1.3800041E-1,-8.6274125E-2,1.0270651E-1,3.2409303E-2,2.4711217E-1,-2.8410308E-2,1.535812E-1,-2.8456017E-1,-5.026119E-2,-1.9756367E-2,-7.356378E-2,1.2567402E-3,2.0285368E-2,2.1671059E-2,-2.1514271E-1,-1.480034E-1,-6.95518E-3,1.0736924E-1,-1.3560534E-3,-9.046034E-2,1.0324592E-1],"split_indices":[6,5,4,3,1,3,4,6,0,0,3,4,4,1,0,0,0,1,0,2,6,5,0,0,6,1,0,3,0,1,0,1,0,5,6,2,3,3,6,3,1,2,5,1,0,0,1,0,0,5,0,5,1,0,0,0,0,0,0,0,0,0,0,0,0,0,0,0,0,0,0,0,0,0,0,0,0,0,0,0,0,0,0,0,0,0,0,0,0,0,0],"split_type":[0,0,0,0,0,0,0,0,0,0,0,0,0,0,0,0,0,0,0,0,0,0,0,0,0,0,0,0,0,0,0,0,0,0,0,0,0,0,0,0,0,0,0,0,0,0,0,0,0,0,0,0,0,0,0,0,0,0,0,0,0,0,0,0,0,0,0,0,0,0,0,0,0,0,0,0,0,0,0,0,0,0,0,0,0,0,0,0,0,0,0],"sum_hessian":[7.72E2,3.7E2,4.02E2,1.93E2,1.77E2,2.18E2,1.84E2,1.6E1,1.77E2,1.07E2,7E1,2.06E2,1.2E1,1.49E2,3.5E1,1.5E1,1E0,2.8E1,1.49E2,2.4E1,8.3E1,6.9E1,1E0,9.6E1,1.1E2,1E1,2E0,9.8E1,5.1E1,2.9E1,6E0,2.7E1,1E0,4.2E1,1.07E2,5E0,1.9E1,5E0,7.8E1,4.9E1,2E1,2.7E1,6.9E1,9E0,1.01E2,8E0,2E0,1E0,1E0,5E1,4.8E1,7E0,4.4E1,2.4E1,5E0,7E0,2E1,3.8E1,4E0,5.2E1,5.5E1,4E0,1E0,1.6E1,3E0,1E0,4E0,6.4E1,1.4E1,4.6E1,3E0,1.9E1,1E0,2.4E1,3E0,6.7E1,2E0,4E0,5E0,3.2E1,6.9E1,1E0,1E0,2E0,4.8E1,3.6E1,1.2E1,2E0,5E0,4.3E1,1E0],"tree_param":{"num_deleted":"0","num_feature":"7","num_nodes":"91","size_leaf_vector":"1"}},{"base_weights":[-1.5772148E-3,1.3221249E-1,-3.2801712E-1,2.8212467E-1,8.668014E-3,-2.1322812E-1,-4.9470386E-1,3.1673434E-1,1.144632E-1,4.834706E-1,-7.5664357E-3,-2.282045E-1,2.2179842E-1,-4.3537942E-1,-8.1715983E-1,4.631899E-1,2.869669E-1,-6.587391E-2,1.7298523E-1,6.317719E-2,2.6733857E-1,9.656096E-2,-6.367929E-2,-8.504535E-2,-2.7173337E-1,1.804948E-3,8.227193E-2,-2.830458E-1,-5.696631E-1,-1.5766812E-2,-8.7649715E-1,5.001368E-1,7.0290685E-2,-1.257984E-1,2.935112E-1,-1.6026485E-1,2.0612852E-1,-1.37314E-1,5.9325386E-2,3.3337048E-1,5.556429E-2,1.0058379E-1,-1.308488E-1,1.0016427E-1,-1.2410314E-1,-4.084408E-1,-1.9830374E-1,-3.101057E-1,9.376466E-3,-7.5367826E-1,-2.6554298E-1,-3.0481482E-2,-2.813115E-1,1.5412728E-1,1.5770102E-2,-1.4915466E-4,4.2398144E-2,1.3544919E-1,7.868528E-2,1.5605521E-2,-7.450962E-2,1.1353863E-1,4.485859E-2,2.7251244E-4,-6.2063817E-2,5.5910956E-2,2.0730893E-1,3.139493E-2,-1.363522E-1,-6.3610873E-3,1.6467139E-1,-6.715206E-2,-1.1992047E-2,-9.885546E-3,-6.39173E-2,6.099138E-2,-1.4226006E-1,-7.349396E-2,7.103224E-2,-1.1229687E-1,-5.8574043E-2,-2.3349525E-1,-2.435074E-2,-1.3402049E-1,-5.8441944E-2],"categories":[],"categories_nodes":[],"categories_segments":[],"categories_sizes":[],"default_left":[0,0,0,0,0,0,0,0,0,0,0,0,0,0,0,0,0,0,0,0,0,0,0,0,0,0,0,0,0,0,0,0,0,0,0,0,0,0,0,0,0,0,0,0,0,0,0,0,0,0,0,0,0,0,0,0,0,0,0,0,0,0,0,0,0,0,0,0,0,0,0,0,0,0,0,0,0,0,0,0,0,0,0,0,0],"id":5,"left_children":[1,3,5,7,9,11,13,15,17,19,21,23,25,27,29,31,33,-1,35,37,-1,39,41,43,45,-1,-1,47,49,-1,51,53,55,-1,57,59,61,63,-1,65,67,69,71,-1,73,75,77,79,-1,81,83,-1,-1,-1,-1,-1,-1,-1,-1,-1,-1,-1,-1,-1,-1,-1,-1,-1,-1,-1,-1,-1,-1,-1,-1,-1,-1,-1,-1,-1,-1,-1,-1,-1,-1],"loss_changes":[3.38036E1,1.0165485E1,4.199621E0,1.4028187E0,2.331522E0,9.3015623E-1,1.3850117E0,7.607975E-1,8.981341E-1,1.6570606E0,1.7181144E0,7.9322433E-1,5.492951E-2,1.4547768E0,5.437393E-1,4.4388628E-1,9.2272186E-1,0E0,4.5274532E-1,1.8903954E-1,0E0,9.814419E-1,2.1205542E0,5.650302E-1,9.228425E-1,0E0,0E0,3.4138536E-1,2.0943365E0,0E0,4.738798E-1,1.5588093E-1,2.0184344E-2,0E0,7.3012733E-1,8.772865E-2,2.8480124E-1,2.9034398E-2,0E0,6.5985477E-1,2.2758665E0,3.0692296E0,1.140337E0,0E0,2.36229E-1,1.464159E0,1.4186234E0,1.9244742E-1,0E0,3.5107708E-1,1.3086033E-1,0E0,0E0,0E0,0E0,0E0,0E0,0E0,0E0,0E0,0E0,0E0,0E0,0E0,0E0,0E0,0E0,0E0,0E0,0E0,0E0,0E0,0E0,0E0,0E0,0E0,0E0,0E0,0E0,0E0,0E0,0E0,0E0,0E0,0E0],"parents":[2147483647,0,0,1,1,2,2,3,3,4,4,5,5,6,6,7,7,8,8,9,9,10,10,11,11,12,12,13,13,14,14,15,15,16,16,18,18,19,19,21,21,22,22,23,23,24,24,27,27,28,28,30,30,31,31,32,32,34,34,35,35,36,36,37,37,39,39,40,40,41,41,42,42,44,44,45,45,46,46,47,47,49,49,50,50],"right_children":[2,4,6,8,10,12,14,16,18,20,22,24,26,28,30,32,34,-1,36,38,-1,40,42,44,46,-1,-1,48,50,-1,52,54,56,-1,58,60,62,64,-1,66,68,70,72,-1,74,76,78,80,-1,82,84,-1,-1,-1,-1,-1,-1,-1,-1,-1,-1,-1,-1,-1,-1,-1,-1,-1,-1,-1,-1,-1,-1,-1,-1,-1,-1,-1,-1,-1,-1,-1,-1,-1,-1],"split_conditions":[6.1970687E-1,-5.551302E-1,1.2102401E0,2E1,-9.121882E-1,3E1,3E0,-1.521822E0,2.1E1,2E0,3E0,1E0,-4.8878604E-1,1.02E2,7.5645095E-1,1.3E1,-2.015213E0,-6.587391E-2,7.9E1,2E0,2.6733857E-1,2.1E1,1E0,3.1E1,2E0,1.804948E-3,8.227193E-2,1.01E2,1E0,-1.5766812E-2,1E1,-1.2479781E0,1.94E2,-1.257984E-1,1E0,-1.5065672E0,-1.2392567E0,1E0,5.9325386E-2,7.1942014E-1,1.1126636E0,1.58E2,3E0,1.0016427E-1,6.9E1,6E0,1.1126636E0,2E0,9.376466E-3,2E0,9.380022E-1,-3.0481482E-2,-2.813115E-1,1.5412728E-1,1.5770102E-2,-1.4915466E-4,4.2398144E-2,1.3544919E-1,7.868528E-2,1.5605521E-2,-7.450962E-2,1.1353863E-1,4.485859E-2,2.7251244E-4,-6.2063817E-2,5.5910956E-2,2.0730893E-1,3.139493E-2,-1.363522E-1,-6.3610873E-3,1.6467139E-1,-6.715206E-2,-1.1992047E-2,-9.885546E-3,-6.39173E-2,6.099138E-2,-1.4226006E-1,-7.349396E-2,7.103224E-2,-1.1229687E-1,-5.8574043E-2,-2.3349525E-1,-2.435074E-2,-1.3402049E-1,-5.8441944E-2],"split_indices":[6,4,4,1,6,1,0,6,1,0,1,0,3,2,3,1,5,0,2,1,0,2,0,2,0,0,0,2,0,0,2,4,2,0,0,3,3,0,0,3,4,2,0,0,2,2,4,1,0,1,6,0,0,0,0,0,0,0,0,0,0,0,0,0,0,0,0,0,0,0,0,0,0,0,0,0,0,0,0,0,0,0,0,0,0],"split_type":[0,0,0,0,0,0,0,0,0,0,0,0,0,0,0,0,0,0,0,0,0,0,0,0,0,0,0,0,0,0,0,0,0,0,0,0,0,0,0,0,0,0,0,0,0,0,0,0,0,0,0,0,0,0,0,0,0,0,0,0,0,0,0,0,0,0,0,0,0,0,0,0,0,0,0,0,0,0,0,0,0,0,0,0,0],"sum_hessian":[7.72E2,5.48E2,2.24E2,2.47E2,3.01E2,1.34E2,9E1,2.04E2,4.3E1,9E0,2.92E2,1.3E2,4E0,7.8E1,1.2E1,3.2E1,1.72E2,6E0,3.7E1,5E0,4E0,1.02E2,1.9E2,3.1E1,9.9E1,1E0,3E0,3.8E1,4E1,1E0,1.1E1,2.9E1,3E0,1E0,1.71E2,3E0,3.4E1,2E0,3E0,1.4E1,8.8E1,5.5E1,1.35E2,2E0,2.9E1,3.3E1,6.6E1,3.5E1,3E0,2.4E1,1.6E1,1E0,1E1,2.8E1,1E0,2E0,1E0,2.6E1,1.45E2,1E0,2E0,7E0,2.7E1,1E0,1E0,1.1E1,3E0,8.1E1,7E0,4.4E1,1.1E1,6.6E1,6.9E1,1.5E1,1.4E1,3E0,3E1,6E1,6E0,2.1E1,1.4E1,2.3E1,1E0,3E0,1.3E1],"tree_param":{"num_deleted":"0","num_feature":"7","num_nodes":"85","size_leaf_vector":"1"}},{"base_weights":[-1.2027131E-3,1.0936242E-1,-2.0758651E-1,1.8300244E-1,1.9462664E-3,-1.3109088E-1,-3.566154E-1,2.7639446E-1,1.3883053E-1,1.06668085E-1,-5.756951E-2,9.399272E-2,-1.6141005E-1,-3.1250995E-1,-5.972088E-1,1.524067E-1,3.8968074E-1,1.232101E-1,3.4313703E-1,4.0644643E-1,4.3115918E-2,-1.351358E-1,8.098682E-2,-6.60069E-2,2.0983914E-1,-5.421897E-1,-1.1200551E-1,-2.02273E-1,-4.097473E-1,-1.3401783E-2,-6.395307E-1,-1.8796407E-2,2.1164195E-1,5.3636193E-1,2.9499507E-1,2.6265737E-1,8.934626E-2,2.300539E-1,1.5786666E-1,5.23057E-1,-4.698234E-2,-9.7533315E-2,1.9144846E-1,-7.350827E-2,-5.430384E-1,2.298389E-1,-2.0396924E-1,-2.44694E-1,2.6319724E-1,3.9792228E-1,8.203305E-2,-6.634208E-1,-9.43047E-2,-7.56813E-3,-1.7600608E-1,-5.2852254E-2,-2.5908643E-1,-5.3788865E-1,-1.9720142E-1,-2.5909247E-2,-6.819673E-1,3.2291066E-2,-1.428359E-1,9.6975386E-2,2.2335779E-2,4.5964338E-2,1.6496623E-1,4.9724128E-2,1.12411305E-1,1.15831524E-1,9.681458E-3,2.2634868E-2,1.0110123E-1,7.360329E-2,-1.6966581E-2,7.2950654E-2,2.4308671E-1,-7.137783E-2,-1.7937184E-3,1.10444814E-1,7.282263E-3,2.7783284E-2,-3.713854E-2,-2.8753998E-2,-2.3546526E-1,1.1516844E-1,2.660705E-2,-2.7713287E-1,-1.3922974E-2,1.1397672E-2,-8.944213E-2,1.1627745E-1,2.7760603E-2,1.4036076E-1,1.7720211E-2,4.891392E-2,-4.030273E-2,-3.657893E-2,-2.0870844E-1,-8.705039E-3,-5.3318456E-2,-2.0365642E-2,4.3109477E-2,-7.378913E-2,-2.4541145E-2,6.695057E-2,-5.089671E-2,-8.792643E-2,3.6587097E-2,-1.6636536E-1,-2.0698143E-2,-8.124679E-2,-1.6001794E-2,-2.2552384E-1,-7.3592536E-2],"categories":[],"categories_nodes":[],"categories_segments":[],"categories_sizes":[],"default_left":[0,0,0,0,0,0,0,0,0,0,0,0,0,0,0,0,0,0,0,0,0,0,0,0,0,0,0,0,0,0,0,0,0,0,0,0,0,0,0,0,0,0,0,0,0,0,0,0,0,0,0,0,0,0,0,0,0,0,0,0,0,0,0,0,0,0,0,0,0,0,0,0,0,0,0,0,0,0,0,0,0,0,0,0,0,0,0,0,0,0,0,0,0,0,0,0,0,0,0,0,0,0,0,0,0,0,0,0,0,0,0,0,0,0,0],"id":6,"left_children":[1,3,5,7,9,11,13,15,17,19,21,23,25,27,29,31,33,35,37,39,41,43,45,47,49,51,53,55,57,-1,59,61,63,65,67,69,71,-1,73,75,-1,77,79,81,83,85,87,89,91,93,95,97,99,101,103,105,107,109,111,-1,113,-1,-1,-1,-1,-1,-1,-1,-1,-1,-1,-1,-1,-1,-1,-1,-1,-1,-1,-1,-1,-1,-1,-1,-1,-1,-1,-1,-1,-1,-1,-1,-1,-1,-1,-1,-1,-1,-1,-1,-1,-1,-1,-1,-1,-1,-1,-1,-1,-1,-1,-1,-1,-1,-1],"loss_changes":[1.7661674E1,3.9863482E0,3.0312672E0,1.1950932E0,1.2900565E0,1.2435534E0,7.790098E-1,1.2749915E0,6.119492E-1,1.411343E0,1.429588E0,4.2162925E-1,2.930418E0,7.639322E-1,2.7542782E-1,4.8061728E-1,5.223174E-1,8.83199E-1,9.779513E-1,9.354696E-1,1.3330326E0,2.0968146E0,2.0828624E0,6.526481E-1,2.7985346E-1,9.14793E-1,9.4780326E-1,3.1738174E-1,1.0105996E0,0E0,2.2279644E-1,8.0291957E-1,5.118395E-1,9.029865E-3,2.675662E-1,1.0398421E0,5.11467E-1,0E0,2.2020385E-1,6.8728423E-1,0E0,4.2274472E-1,9.067986E-1,6.379857E-1,1.1144369E0,6.617857E-1,1.8851366E0,1.1708698E-1,4.9051523E-2,9.087342E-2,1.7966776E-1,1.5983868E-1,2.207562E-2,5.1157427E-1,5.598142E-1,4.2474395E-1,3.9851546E-1,1.5706348E-1,1.6560674E-1,0E0,1.5075493E-1,0E0,0E0,0E0,0E0,0E0,0E0,0E0,0E0,0E0,0E0,0E0,0E0,0E0,0E0,0E0,0E0,0E0,0E0,0E0,0E0,0E0,0E0,0E0,0E0,0E0,0E0,0E0,0E0,0E0,0E0,0E0,0E0,0E0,0E0,0E0,0E0,0E0,0E0,0E0,0E0,0E0,0E0,0E0,0E0,0E0,0E0,0E0,0E0,0E0,0E0,0E0,0E0,0E0,0E0],"parents":[2147483647,0,0,1,1,2,2,3,3,4,4,5,5,6,6,7,7,8,8,9,9,10,10,11,11,12,12,13,13,14,14,15,15,16,16,17,17,18,18,19,19,20,20,21,21,22,22,23,23,24,24,25,25,26,26,27,27,28,28,30,30,31,31,32,32,33,33,34,34,35,35,36,36,38,38,39,39,41,41,42,42,43,43,44,44,45,45,46,46,47,47,48,48,49,49,50,50,51,51,52,52,53,53,54,54,55,55,56,56,57,57,58,58,60,60],"right_children":[2,4,6,8,10,12,14,16,18,20,22,24,26,28,30,32,34,36,38,40,42,44,46,48,50,52,54,56,58,-1,60,62,64,66,68,70,72,-1,74,76,-1,78,80,82,84,86,88,90,92,94,96,98,100,102,104,106,108,110,112,-1,114,-1,-1,-1,-1,-1,-1,-1,-1,-1,-1,-1,-1,-1,-1,-1,-1,-1,-1,-1,-1,-1,-1,-1,-1,-1,-1,-1,-1,-1,-1,-1,-1,-1,-1,-1,-1,-1,-1,-1,-1,-1,-1,-1,-1,-1,-1,-1,-1,-1,-1,-1,-1,-1,-1],"split_conditions":[4.546005E-1,-3.006321E-1,1.2102401E0,-1.1847272E0,-1.6935381E-1,1.9E1,3E0,3E0,1.5573182E0,1E0,6.3746136E-1,9E0,2.8E1,1.02E2,7.5645095E-1,-1.6498241E0,-1.6472692E0,1E0,-1.0974417E0,-1.61609E-1,2E0,4.118807E-1,1.337942E0,7.4503E-1,2E0,3E0,6.9E1,1E0,1E0,-1.3401783E-2,1E1,-1.68529E0,-1.1909181E0,-2.9265838E0,-1.444838E0,-3.6416852E-1,-3.4583455E-1,2.300539E-1,1.3E1,9E1,-4.698234E-2,-2.0217891E-1,2E0,3.1E1,1E0,8E0,1E0,-4.7870407E-1,2E0,6.1970687E-1,6.3746136E-1,2.526356E-1,4.451501E-1,5.6E1,1.21E2,6.9E1,7.4E1,2E0,1.12E2,-2.5909247E-2,1.6600467E0,3.2291066E-2,-1.428359E-1,9.6975386E-2,2.2335779E-2,4.5964338E-2,1.6496623E-1,4.9724128E-2,1.12411305E-1,1.15831524E-1,9.681458E-3,2.2634868E-2,1.0110123E-1,7.360329E-2,-1.6966581E-2,7.2950654E-2,2.4308671E-1,-7.137783E-2,-1.7937184E-3,1.10444814E-1,7.282263E-3,2.7783284E-2,-3.713854E-2,-2.8753998E-2,-2.3546526E-1,1.1516844E-1,2.660705E-2,-2.7713287E-1,-1.3922974E-2,1.1397672E-2,-8.944213E-2,1.1627745E-1,2.7760603E-2,1.4036076E-1,1.7720211E-2,4.891392E-2,-4.030273E-2,-3.657893E-2,-2.0870844E-1,-8.705039E-3,-5.3318456E-2,-2.0365642E-2,4.3109477E-2,-7.378913E-2,-2.4541145E-2,6.695057E-2,-5.089671E-2,-8.792643E-2,3.6587097E-2,-1.6636536E-1,-2.0698143E-2,-8.124679E-2,-1.6001794E-2,-2.2552384E-1,-7.3592536E-2],"split_indices":[6,6,4,4,5,2,0,0,3,0,3,2,2,2,3,3,5,0,6,3,0,4,5,4,1,0,2,0,0,0,2,3,3,6,3,4,6,0,1,2,0,6,1,2,0,1,0,3,1,6,3,3,3,2,2,2,2,1,2,0,3,0,0,0,0,0,0,0,0,0,0,0,0,0,0,0,0,0,0,0,0,0,0,0,0,0,0,0,0,0,0,0,0,0,0,0,0,0,0,0,0,0,0,0,0,0,0,0,0,0,0,0,0,0,0],"split_type":[0,0,0,0,0,0,0,0,0,0,0,0,0,0,0,0,0,0,0,0,0,0,0,0,0,0,0,0,0,0,0,0,0,0,0,0,0,0,0,0,0,0,0,0,0,0,0,0,0,0,0,0,0,0,0,0,0,0,0,0,0,0,0,0,0,0,0,0,0,0,0,0,0,0,0,0,0,0,0,0,0,0,0,0,0,0,0,0,0,0,0,0,0,0,0,0,0,0,0,0,0,0,0,0,0,0,0,0,0,0,0,0,0,0,0],"sum_hessian":[7.72E2,5.03E2,2.69E2,2.98E2,2.05E2,1.79E2,9E1,9.4E1,2.04E2,7.4E1,1.31E2,2.1E1,1.58E2,7.8E1,1.2E1,4.6E1,4.8E1,1.91E2,1.3E1,1.2E1,6.2E1,8.4E1,4.7E1,9E0,1.2E1,1.7E1,1.41E2,3.8E1,4E1,1E0,1.1E1,1.2E1,3.4E1,1.7E1,3.1E1,3.6E1,1.55E2,3E0,1E1,1E1,2E0,3.2E1,3E1,7.4E1,1E1,3.1E1,1.6E1,6E0,3E0,4E0,8E0,1.3E1,4E0,5.4E1,8.7E1,1.1E1,2.7E1,2.4E1,1.6E1,1E0,1E1,1E1,2E0,1.8E1,1.6E1,1E0,1.6E1,1.3E1,1.8E1,2.3E1,1.3E1,1.48E2,7E0,7E0,3E0,6E0,4E0,1.2E1,2E1,1.4E1,1.6E1,1.7E1,5.7E1,4E0,6E0,1.4E1,1.7E1,2E0,1.4E1,1E0,5E0,1E0,2E0,3E0,1E0,6E0,2E0,1E0,1.2E1,3E0,1E0,3.9E1,1.5E1,4.9E1,3.8E1,3E0,8E0,2.5E1,2E0,2.3E1,1E0,1E1,6E0,8E0,2E0],"tree_param":{"num_deleted":"0","num_feature":"7","num_nodes":"115","size_leaf_vector":"1"}},{"base_weights":[-8.4153924E-4,1.0496169E-1,-1.1517503E-1,9.504407E-2,4.4884786E-1,-6.55632E-2,-2.407064E-1,1.6142915E-1,2.9849352E-2,5.8027983E-2,5.881518E-1,-8.060771E-2,5.068975E-1,-2.5278524E-1,7.6270774E-2,9.976114E-2,2.2206868E-1,1.4934924E-1,-1.1528183E-3,6.06442E-2,-5.614951E-2,2.0583446E-1,-1.4638425E-2,-8.8548385E-2,2.729524E-1,1.8069081E-1,5.367694E-2,-1.6928288E-1,-3.449383E-1,1.2805726E-1,-1.13699116E-1,3.8717186E-1,1.8214461E-1,-1.2872073E-1,2.983011E-1,3.472487E-2,-1.1630874E-1,-1.19255826E-1,2.1239861E-3,4.1037906E-2,1.0905423E-1,5.9553932E-2,-1.8658112E-1,-3.9329767E-1,-1.6708548E-1,3.020797E-2,1.0620722E-1,3.1139042E-2,-8.516444E-2,1.6831589E-1,9.4497636E-2,4.7084272E-2,1.0904479E-1,3.0666592E-3,-1.01651646E-1,1.258641E-1,4.0636737E-2,1.0794079E-3,7.22146E-2,2.5971983E-2,-6.3982904E-2,-1.1103187E-1,-2.8771898E-2,2.8013632E-2,-2.5952792E-2,-9.5059484E-2,-3.379122E-2,-1.8827026E-1,-9.2109375E-2,2.3725921E-2,-9.001717E-2],"categories":[],"categories_nodes":[],"categories_segments":[],"categories_sizes":[],"default_left":[0,0,0,0,0,0,0,0,0,0,0,0,0,0,0,0,0,0,0,0,0,0,0,0,0,0,0,0,0,0,0,0,0,0,0,0,0,0,0,0,0,0,0,0,0,0,0,0,0,0,0,0,0,0,0,0,0,0,0,0,0,0,0,0,0,0,0,0,0,0,0],"id":7,"left_children":[1,3,5,7,9,11,13,15,17,19,21,23,25,27,-1,29,31,33,35,-1,-1,-1,-1,37,39,-1,-1,41,43,45,47,49,51,53,55,57,59,61,63,-1,-1,-1,65,67,69,-1,-1,-1,-1,-1,-1,-1,-1,-1,-1,-1,-1,-1,-1,-1,-1,-1,-1,-1,-1,-1,-1,-1,-1,-1,-1],"loss_changes":[9.362957E0,1.3283744E0,2.3009753E0,1.6917405E0,5.6474113E-1,2.348981E0,6.919913E-1,7.033129E-1,7.3741865E-1,1.7918313E-1,5.3265667E-1,7.5973594E-1,1.1126733E-1,7.341933E-1,0E0,6.0648936E-1,5.688629E-1,1.7365782E0,6.609518E-1,0E0,0E0,0E0,0E0,7.158227E-1,2.4258763E-2,0E0,0E0,3.9332342E-1,3.47126E-1,5.023047E-1,4.736336E-1,4.9185276E-2,3.084867E-1,4.4137996E-1,4.7626686E-1,7.813775E-1,7.6603734E-1,1.0890927E0,5.419001E-1,0E0,0E0,0E0,4.8452723E-1,5.5507326E-1,4.165373E-1,0E0,0E0,0E0,0E0,0E0,0E0,0E0,0E0,0E0,0E0,0E0,0E0,0E0,0E0,0E0,0E0,0E0,0E0,0E0,0E0,0E0,0E0,0E0,0E0,0E0,0E0],"parents":[2147483647,0,0,1,1,2,2,3,3,4,4,5,5,6,6,7,7,8,8,9,9,10,10,11,11,12,12,13,13,15,15,16,16,17,17,18,18,23,23,24,24,27,27,28,28,29,29,30,30,31,31,32,32,33,33,34,34,35,35,36,36,37,37,38,38,42,42,43,43,44,44],"right_children":[2,4,6,8,10,12,14,16,18,20,22,24,26,28,-1,30,32,34,36,-1,-1,-1,-1,38,40,-1,-1,42,44,46,48,50,52,54,56,58,60,62,64,-1,-1,-1,66,68,70,-1,-1,-1,-1,-1,-1,-1,-1,-1,-1,-1,-1,-1,-1,-1,-1,-1,-1,-1,-1,-1,-1,-1,-1,-1,-1],"split_conditions":[8.4864184E-2,6.2331027E-1,1.1956127E0,-7.7813715E-1,1.71E2,1.8106747E0,1.83E2,3E0,1E0,1E0,-3.7177294E-1,3.2E1,1.9452037E0,1.02E2,7.6270774E-2,-4.5612025E-1,-1.6472692E0,6.7E1,-1.5410791E-1,6.06442E-2,-5.614951E-2,2.0583446E-1,-1.4638425E-2,9.1038793E-1,4.6079144E-1,1.8069081E-1,5.367694E-2,6E0,1.13E2,-6.1995256E-1,1.33E2,8.3E1,-4.7906104E-1,2E0,1.32E2,-1.9322975E-1,5.3E1,1.1380366E-1,7.9822814E-1,4.1037906E-2,1.0905423E-1,5.9553932E-2,2.8E1,1.370541E0,1.37E2,3.020797E-2,1.0620722E-1,3.1139042E-2,-8.516444E-2,1.6831589E-1,9.4497636E-2,4.7084272E-2,1.0904479E-1,3.0666592E-3,-1.01651646E-1,1.258641E-1,4.0636737E-2,1.0794079E-3,7.22146E-2,2.5971983E-2,-6.3982904E-2,-1.1103187E-1,-2.8771898E-2,2.8013632E-2,-2.5952792E-2,-9.5059484E-2,-3.379122E-2,-1.8827026E-1,-9.2109375E-2,2.3725921E-2,-9.001717E-2],"split_indices":[4,3,4,5,2,3,2,0,0,0,6,1,3,2,0,6,5,2,5,0,0,0,0,3,3,0,0,2,2,6,2,2,6,1,2,3,2,6,4,0,0,0,2,6,2,0,0,0,0,0,0,0,0,0,0,0,0,0,0,0,0,0,0,0,0,0,0,0,0,0,0],"split_type":[0,0,0,0,0,0,0,0,0,0,0,0,0,0,0,0,0,0,0,0,0,0,0,0,0,0,0,0,0,0,0,0,0,0,0,0,0,0,0,0,0,0,0,0,0,0,0,0,0,0,0,0,0,0,0,0,0,0,0,0,0,0,0,0,0,0,0,0,0,0,0],"sum_hessian":[7.72E2,4.01E2,3.71E2,3.91E2,1E1,2.67E2,1.04E2,1.93E2,1.98E2,3E0,7E0,2.61E2,6E0,1.02E2,2E0,9.7E1,9.6E1,4E1,1.58E2,2E0,1E0,6E0,1E0,2.56E2,5E0,4E0,2E0,5.5E1,4.7E1,8.6E1,1.1E1,1.7E1,7.9E1,1.4E1,2.6E1,1.21E2,3.7E1,1.91E2,6.5E1,3E0,2E0,2E0,5.3E1,3.6E1,1.1E1,7.8E1,8E0,5E0,6E0,3E0,1.4E1,7.1E1,8E0,9E0,5E0,1.4E1,1.2E1,1.06E2,1.5E1,1.2E1,2.5E1,1.5E1,1.76E2,3.2E1,3.3E1,1.8E1,3.5E1,8E0,2.8E1,4E0,7E0],"tree_param":{"num_deleted":"0","num_feature":"7","num_nodes":"71","size_leaf_vector":"1"}},{"base_weights":[3.2581764E-4,6.273276E-2,-1.10397354E-1,1.4291489E-1,3.5548136E-2,-1.3447692E-1,5.0730538E-2,1.3150205E-1,1.3658327E-1,1.9721705E-2,2.215108E-1,-1.180335E-1,-4.4117662E-1,1.3540874E-1,-6.8872645E-2,3.973113E-1,1.19124524E-1,5.7515178E-2,-2.8714465E-2,8.16136E-2,1.4374624E-1,-1.4030585E-1,2.6796252E-1,-6.485717E-1,-2.0038417E-1,5.8556262E-2,2.2177608E-1,9.148097E-2,-2.4066138E-1,1.4592573E-1,6.132031E-3,6.5040424E-2,1.6374174E-1,-6.412868E-3,1.0479907E-1,-4.939326E-1,-1.5946986E-2,2.660351E-1,-1.7334993E-1,-1.1669539E-1,-3.8393775E-1,-6.3764416E-2,3.3407328E-1,-2.2859253E-1,-8.435301E-2,-2.6244292E-1,-9.047461E-3,-1.3939814E-2,9.1456935E-2,7.3232606E-2,3.1174065E-3,1.3754934E-1,-4.15599E-2,-3.7676907E-1,-1.0361433E-2,-3.1245722E-2,3.291172E-2,9.155375E-2,3.9569445E-2,1.1541528E-2,-6.911339E-2,8.797099E-2,2.2373654E-2,-4.452603E-2,-1.6788903E-1,2.5406279E-2,-1.4714986E-2,1.0043003E-1,-7.350194E-2,-1.1471054E-1,-1.5337826E-3,-4.0891334E-2,7.085414E-2,-2.312249E-1,-5.7221126E-2,-4.0631607E-2,1.1937619E-2,1.0490025E-1,2.6719667E-2,-3.050871E-2,-1.0071276E-1,1.26361195E-2,-3.6772586E-2,7.3216916E-3,5.135889E-2,-1.4756241E-1,1.2548018E-2,-8.5201266E-4,-4.938841E-3],"categories":[],"categories_nodes":[],"categories_segments":[],"categories_sizes":[],"default_left":[0,0,0,0,0,0,0,0,0,0,0,0,0,0,0,0,0,0,0,0,0,0,0,0,0,0,0,0,0,0,0,0,0,0,0,0,0,0,0,0,0,0,0,0,0,0,0,0,0,0,0,0,0,0,0,0,0,0,0,0,0,0,0,0,0,0,0,0,0,0,0,0,0,0,0,0,0,0,0,0,0,0,0,0,0,0,0,0,0],"id":8,"left_children":[1,3,5,7,9,11,13,15,-1,17,19,21,23,25,27,29,31,33,35,37,-1,39,41,43,45,47,49,51,53,-1,-1,55,57,59,61,63,65,67,69,71,73,75,77,-1,-1,79,-1,81,-1,-1,-1,83,-1,85,87,-1,-1,-1,-1,-1,-1,-1,-1,-1,-1,-1,-1,-1,-1,-1,-1,-1,-1,-1,-1,-1,-1,-1,-1,-1,-1,-1,-1,-1,-1,-1,-1,-1,-1],"loss_changes":[5.3482747E0,1.0738815E0,1.0893114E0,3.8574815E-1,1.0875307E0,1.1734223E0,3.840539E-1,3.5405803E-1,0E0,6.295374E-1,1.0061582E0,2.0321093E0,4.693067E-1,1.3303956E-1,4.6276706E-1,1.5796834E-1,2.7409375E-1,5.84066E-1,8.890124E-1,9.865325E-1,0E0,1.2206931E0,3.0640137E-1,3.5733223E-2,6.6033244E-2,2.3637503E-1,4.467106E-2,1.1442245E-1,2.4686086E-1,0E0,0E0,4.2706382E-1,2.4799538E-1,8.432279E-1,6.1023426E-1,7.7369213E-3,4.9718678E-1,5.035166E-1,3.1452754E-1,1.429944E0,1.2729034E0,2.7656391E-2,1.0884404E-2,0E0,0E0,2.4746567E-2,0E0,7.215432E-2,0E0,0E0,0E0,2.6277363E-2,0E0,2.6148725E-1,1.3680811E-4,0E0,0E0,0E0,0E0,0E0,0E0,0E0,0E0,0E0,0E0,0E0,0E0,0E0,0E0,0E0,0E0,0E0,0E0,0E0,0E0,0E0,0E0,0E0,0E0,0E0,0E0,0E0,0E0,0E0,0E0,0E0,0E0,0E0,0E0],"parents":[2147483647,0,0,1,1,2,2,3,3,4,4,5,5,6,6,7,7,9,9,10,10,11,11,12,12,13,13,14,14,15,15,16,16,17,17,18,18,19,19,21,21,22,22,23,23,24,24,25,25,26,26,27,27,28,28,31,31,32,32,33,33,34,34,35,35,36,36,37,37,38,38,39,39,40,40,41,41,42,42,45,45,47,47,51,51,53,53,54,54],"right_children":[2,4,6,8,10,12,14,16,-1,18,20,22,24,26,28,30,32,34,36,38,-1,40,42,44,46,48,50,52,54,-1,-1,56,58,60,62,64,66,68,70,72,74,76,78,-1,-1,80,-1,82,-1,-1,-1,84,-1,86,88,-1,-1,-1,-1,-1,-1,-1,-1,-1,-1,-1,-1,-1,-1,-1,-1,-1,-1,-1,-1,-1,-1,-1,-1,-1,-1,-1,-1,-1,-1,-1,-1,-1,-1],"split_conditions":[4.770501E-1,-1.0550424E0,1.54E2,-1.0873944E0,6.2331027E-1,1.38E2,3E0,-2.3193464E0,1.3658327E-1,-2.2774233E-1,3E0,1.22E2,8E0,2.2532602E-1,7.757002E-1,1.62E2,3E0,1.28E2,-4.9993402E-1,8.621769E-1,1.4374624E-1,1.09E2,5.3160036E-1,1.6467329E0,1E0,2E0,1.8106747E0,8E0,1.0823189E0,1.4592573E-1,6.132031E-3,-1.6498241E0,1.15E2,1.18E2,1.38E2,3E0,3.1E1,2.9E1,-6.295404E-1,1.06E2,1.11E2,2E0,5E0,-2.2859253E-1,-8.435301E-2,1.5E1,-9.047461E-3,1.7962483E0,9.1456935E-2,7.3232606E-2,3.1174065E-3,5.2547306E-1,-4.15599E-2,9.8928314E-1,6.7104954E-1,-3.1245722E-2,3.291172E-2,9.155375E-2,3.9569445E-2,1.1541528E-2,-6.911339E-2,8.797099E-2,2.2373654E-2,-4.452603E-2,-1.6788903E-1,2.5406279E-2,-1.4714986E-2,1.0043003E-1,-7.350194E-2,-1.1471054E-1,-1.5337826E-3,-4.0891334E-2,7.085414E-2,-2.312249E-1,-5.7221126E-2,-4.0631607E-2,1.1937619E-2,1.0490025E-1,2.6719667E-2,-3.050871E-2,-1.0071276E-1,1.26361195E-2,-3.6772586E-2,7.3216916E-3,5.135889E-2,-1.4756241E-1,1.2548018E-2,-8.5201266E-4,-4.938841E-3],"split_indices":[4,5,2,5,3,2,0,3,0,5,0,2,1,6,4,2,0,2,4,3,0,2,4,3,0,0,3,1,6,0,0,3,2,2,2,0,2,1,6,2,2,0,1,0,0,1,0,3,0,0,0,4,0,4,3,0,0,0,0,0,0,0,0,0,0,0,0,0,0,0,0,0,0,0,0,0,0,0,0,0,0,0,0,0,0,0,0,0,0],"split_type":[0,0,0,0,0,0,0,0,0,0,0,0,0,0,0,0,0,0,0,0,0,0,0,0,0,0,0,0,0,0,0,0,0,0,0,0,0,0,0,0,0,0,0,0,0,0,0,0,0,0,0,0,0,0,0,0,0,0,0,0,0,0,0,0,0,0,0,0,0,0,0,0,0,0,0,0,0,0,0,0,0,0,0,0,0,0,0,0,0],"sum_hessian":[7.72E2,4.94E2,2.78E2,1.24E2,3.7E2,2.42E2,3.6E1,1.21E2,3E0,3.42E2,2.8E1,2.31E2,1.1E1,2.1E1,1.5E1,4E0,1.17E2,1.92E2,1.5E2,1.9E1,9E0,2.19E2,1.2E1,5E0,6E0,1.2E1,9E0,8E0,7E0,3E0,1E0,5.4E1,6.3E1,8.2E1,1.1E2,3E0,1.47E2,1.1E1,8E0,2.01E2,1.8E1,2E0,1E1,3E0,2E0,4E0,2E0,1E1,2E0,8E0,1E0,7E0,1E0,4E0,3E0,1.1E1,4.3E1,1E1,5.3E1,6.9E1,1.3E1,1.4E1,9.6E1,1E0,2E0,3.6E1,1.11E2,1E1,1E0,3E0,5E0,1.91E2,1E1,5E0,1.3E1,1E0,1E0,9E0,1E0,2E0,2E0,7E0,3E0,2E0,5E0,3E0,1E0,2E0,1E0],"tree_param":{"num_deleted":"0","num_feature":"7","num_nodes":"89","size_leaf_vector":"1"}},{"base_weights":[-1.1067434E-4,4.4573396E-2,-7.938847E-2,-1.5521124E-1,5.0711017E-2,1.0030468E-1,-9.216541E-2,1.1115432E-2,-2.3948613E-1,1.2877662E-1,3.0910823E-2,-2.4491684E-1,1.5532584E-1,-2.7585024E-1,-6.529307E-2,-5.565566E-2,2.8931523E-2,-2.7276257E-1,9.000278E-3,2.4328856E-2,1.7080864E-1,-5.3508345E-2,6.6620395E-2,-8.794463E-2,-2.226795E-2,1.0459017E-1,8.900028E-2,2.2292106E-1,-3.1522003E-1,3.0672895E-2,-1.03515394E-1,1.0192824E-2,-2.905748E-2,-9.668564E-2,-6.6288315E-2,1.6282406E-1,-1.5865172E-1,6.818261E-2,2.0844287E-1,2.1332067E-1,-7.545183E-2,1.0122381E-1,1.5053352E-2,4.5518085E-2,9.8140314E-2,9.907551E-2,1.238966E-3,-3.6665922E-1,-1.4873992E-1,-5.4480743E-2,1.8196179E-1,-1.7644154E-1,-1.462382E-2,-4.79722E-3,-2.5032522E-2,-2.6167632E-4,5.9389252E-2,-5.638801E-2,2.8957201E-2,6.8567027E-3,7.313293E-2,9.6456714E-2,3.0062305E-2,1.1766329E-2,1.03426844E-1,-1.25899725E-2,-5.8776353E-2,-1.6115274E-2,3.4873016E-2,-7.925435E-3,4.713392E-2,3.0508487E-2,-5.2690938E-2,-1.2693414E-1,-4.0855683E-2,-7.476795E-3,-8.9184254E-2,-6.1811313E-2,3.2498534E-3,7.765564E-2,-1.2525232E-2,-6.078763E-2,3.5181463E-2,1.3833542E-1,-1.4376241E-2],"categories":[],"categories_nodes":[],"categories_segments":[],"categories_sizes":[],"default_left":[0,0,0,0,0,0,0,0,0,0,0,0,0,0,0,0,0,0,0,0,0,0,0,0,0,0,0,0,0,0,0,0,0,0,0,0,0,0,0,0,0,0,0,0,0,0,0,0,0,0,0,0,0,0,0,0,0,0,0,0,0,0,0,0,0,0,0,0,0,0,0,0,0,0,0,0,0,0,0,0,0,0,0,0,0],"id":9,"left_children":[1,3,5,7,9,11,13,15,17,19,21,23,25,27,29,31,-1,33,-1,35,37,39,41,-1,-1,-1,43,45,47,49,51,-1,-1,-1,53,55,57,59,61,63,65,67,69,71,-1,-1,-1,73,75,77,79,81,83,-1,-1,-1,-1,-1,-1,-1,-1,-1,-1,-1,-1,-1,-1,-1,-1,-1,-1,-1,-1,-1,-1,-1,-1,-1,-1,-1,-1,-1,-1,-1,-1],"loss_changes":[2.7418559E0,6.1484116E-1,6.498085E-1,2.1291938E-1,7.3950803E-1,3.9893723E-1,1.2702959E0,3.954999E-2,9.7858846E-2,4.216888E-1,1.164175E0,2.9387772E-3,1.8693298E-1,7.1827435E-1,8.431567E-1,1.8063108E-2,0E0,7.0663035E-2,0E0,7.6074845E-1,2.522831E-1,6.894387E-1,4.8204768E-1,0E0,0E0,0E0,1.3007376E-1,6.908508E-2,2.1093464E-1,8.6017823E-1,1.060553E0,0E0,0E0,0E0,1.2540314E-3,9.796181E-2,1.1536664E-1,1.5361094E-1,5.7974005E-1,1.9242397E-1,4.2341024E-1,3.8324332E-1,6.522074E-1,1.7937033E-1,0E0,0E0,0E0,2.416377E-1,1.5811838E-1,4.278773E-1,4.2363936E-1,7.159116E-1,1.2101548E0,0E0,0E0,0E0,0E0,0E0,0E0,0E0,0E0,0E0,0E0,0E0,0E0,0E0,0E0,0E0,0E0,0E0,0E0,0E0,0E0,0E0,0E0,0E0,0E0,0E0,0E0,0E0,0E0,0E0,0E0,0E0,0E0],"parents":[2147483647,0,0,1,1,2,2,3,3,4,4,5,5,6,6,7,7,8,8,9,9,10,10,11,11,12,12,13,13,14,14,15,15,17,17,19,19,20,20,21,21,22,22,26,26,27,27,28,28,29,29,30,30,34,34,35,35,36,36,37,37,38,38,39,39,40,40,41,41,42,42,43,43,47,47,48,48,49,49,50,50,51,51,52,52],"right_children":[2,4,6,8,10,12,14,16,18,20,22,24,26,28,30,32,-1,34,-1,36,38,40,42,-1,-1,-1,44,46,48,50,52,-1,-1,-1,54,56,58,60,62,64,66,68,70,72,-1,-1,-1,74,76,78,80,82,84,-1,-1,-1,-1,-1,-1,-1,-1,-1,-1,-1,-1,-1,-1,-1,-1,-1,-1,-1,-1,-1,-1,-1,-1,-1,-1,-1,-1,-1,-1,-1,-1],"split_conditions":[4.770501E-1,8E0,1.1E1,3E0,1E0,2.044565E-1,2.8E1,8E0,3.6E1,6.7E1,2E0,2E0,5.3874344E-1,5.3160036E-1,6.9E1,-4.7870407E-1,2.8931523E-2,2.59719E-1,9.000278E-3,3.1E1,-9.013426E-1,2E1,-4.6092945E-1,-8.794463E-2,-2.226795E-2,1.0459017E-1,1E1,2E0,5E0,5.6E1,2E0,1.0192824E-2,-2.905748E-2,-9.668564E-2,2E0,-7.3118E-1,3.935704E-1,1.71E2,1.32E2,1.9E1,-1.2323795E-1,5E1,3.2726046E-1,1.6096144E0,9.8140314E-2,9.907551E-2,1.238966E-3,1.5676984E0,8E0,6.6393036E-1,3E0,2.11E2,3E0,-4.79722E-3,-2.5032522E-2,-2.6167632E-4,5.9389252E-2,-5.638801E-2,2.8957201E-2,6.8567027E-3,7.313293E-2,9.6456714E-2,3.0062305E-2,1.1766329E-2,1.03426844E-1,-1.25899725E-2,-5.8776353E-2,-1.6115274E-2,3.4873016E-2,-7.925435E-3,4.713392E-2,3.0508487E-2,-5.2690938E-2,-1.2693414E-1,-4.0855683E-2,-7.476795E-3,-8.9184254E-2,-6.1811313E-2,3.2498534E-3,7.765564E-2,-1.2525232E-2,-6.078763E-2,3.5181463E-2,1.3833542E-1,-1.4376241E-2],"split_indices":[4,2,2,2,0,3,2,1,1,2,0,0,3,4,2,3,0,6,0,2,3,2,5,0,0,0,2,0,1,2,1,0,0,0,0,6,4,2,2,2,4,2,3,3,0,0,0,6,1,5,1,2,1,0,0,0,0,0,0,0,0,0,0,0,0,0,0,0,0,0,0,0,0,0,0,0,0,0,0,0,0,0,0,0,0],"split_type":[0,0,0,0,0,0,0,0,0,0,0,0,0,0,0,0,0,0,0,0,0,0,0,0,0,0,0,0,0,0,0,0,0,0,0,0,0,0,0,0,0,0,0,0,0,0,0,0,0,0,0,0,0,0,0,0,0,0,0,0,0,0,0,0,0,0,0,0,0,0,0,0,0,0,0,0,0,0,0,0,0,0,0,0,0],"sum_hessian":[7.72E2,4.94E2,2.78E2,1.4E1,4.8E2,1.8E1,2.6E2,5E0,9E0,9.6E1,3.84E2,2E0,1.6E1,3.2E1,2.28E2,3E0,2E0,8E0,1E0,2.8E1,6.8E1,1.14E2,2.7E2,1E0,1E0,3E0,1.3E1,2E0,3E1,6.5E1,1.63E2,1E0,2E0,6E0,2E0,1.6E1,1.2E1,1.9E1,4.9E1,8E0,1.06E2,1.61E2,1.09E2,1.2E1,1E0,1E0,1E0,2.2E1,8E0,4.2E1,2.3E1,8.9E1,7.4E1,1E0,1E0,3E0,1.3E1,1.1E1,1E0,1.6E1,3E0,2.3E1,2.6E1,4E0,4E0,8.4E1,2.2E1,1.4E1,1.47E2,8.5E1,2.4E1,1E1,2E0,1.7E1,5E0,5E0,3E0,1.2E1,3E1,1.7E1,6E0,8.2E1,7E0,4E0,7E1],"tree_param":{"num_deleted":"0","num_feature":"7","num_nodes":"85","size_leaf_vector":"1"}},{"base_weights":[2.3776008E-4,3.1535164E-2,-5.818494E-2,2.380939E-3,7.1354404E-2,-4.786915E-3,-9.8375745E-2,3.0622521E-2,-1.6186967E-1,1.9416833E-1,5.248266E-2,-4.115378E-2,8.903038E-2,-2.3563236E-1,-7.613123E-2,1.9307428E-3,2.1284291E-1,-3.092994E-1,-1.0782129E-1,1.3782966E-1,1.4932287E-1,3.72193E-2,1.6457228E-1,2.2574054E-2,-1.3740948E-1,-2.563463E-2,1.6484436E-1,-3.643722E-1,7.39005E-2,2.5141108E-1,-9.0775594E-2,4.309023E-2,-1.2950015E-1,1.4606667E-1,3.5849923E-1,-3.236902E-1,-2.4808718E-2,1.8422145E-1,-1.9353363E-1,2.9750315E-2,2.7268064E-1,5.5186585E-2,-1.12579435E-1,2.968725E-1,5.2836593E-3,1.1568277E-1,-2.5955405E-2,-1.5829086E-1,8.2751445E-2,2.7019125E-1,-1.3087726E-1,1.8881804E-1,-4.3598343E-2,4.008744E-2,-4.0948805E-1,-7.634207E-2,1.4630339E-1,-7.409382E-2,1.298061E-1,-1.2536144E-1,-3.7151128E-2,-3.80249E-3,5.5365797E-2,-8.5576996E-2,-4.4357534E-3,6.668474E-2,-2.4501434E-2,1.1397349E-1,2.4868155E-2,-5.910721E-2,-1.2328547E-1,2.4364734E-2,9.864769E-2,-8.147588E-2,-3.545678E-2,-2.4665274E-2,1.9378128E-2,1.006426E-1,-1.9791126E-3,1.247015E-2,6.1822824E-2,-7.898617E-2,3.2614857E-2,1.1734295E-2,1.0335381E-1,-4.5183495E-2,4.8089508E-2,-1.6643822E-2,4.608415E-2,-3.659661E-2,1.56507E-2,-2.6678836E-2,-1.0001208E-1,9.374068E-2,2.1503735E-2,-5.504219E-2,2.1161582E-2,7.045286E-2,-1.2745732E-2,-6.155348E-3,-1.4178199E-1,2.0142406E-2,-7.266178E-2,4.0744545E-4,-3.3749666E-2,-9.5483445E-2,-3.318974E-2,1.0771332E-1,-2.062063E-2],"categories":[],"categories_nodes":[],"categories_segments":[],"categories_sizes":[],"default_left":[0,0,0,0,0,0,0,0,0,0,0,0,0,0,0,0,0,0,0,0,0,0,0,0,0,0,0,0,0,0,0,0,0,0,0,0,0,0,0,0,0,0,0,0,0,0,0,0,0,0,0,0,0,0,0,0,0,0,0,0,0,0,0,0,0,0,0,0,0,0,0,0,0,0,0,0,0,0,0,0,0,0,0,0,0,0,0,0,0,0,0,0,0,0,0,0,0,0,0,0,0,0,0,0,0,0,0,0,0],"id":10,"left_children":[1,3,5,7,9,11,13,15,17,19,21,23,25,27,29,31,33,35,37,39,-1,41,43,45,47,49,51,53,55,57,59,61,63,65,67,69,-1,71,73,75,77,79,81,83,85,87,89,91,-1,93,95,97,-1,-1,99,101,-1,103,-1,105,107,-1,-1,-1,-1,-1,-1,-1,-1,-1,-1,-1,-1,-1,-1,-1,-1,-1,-1,-1,-1,-1,-1,-1,-1,-1,-1,-1,-1,-1,-1,-1,-1,-1,-1,-1,-1,-1,-1,-1,-1,-1,-1,-1,-1,-1,-1,-1,-1],"loss_changes":[1.415249E0,5.849232E-1,5.7897866E-1,1.3594564E0,4.8348248E-1,4.028493E-1,4.522549E-1,1.3066459E0,3.0928946E-1,4.1027987E-1,3.1209546E-1,5.2450603E-1,2.9110166E-1,8.637607E-1,6.655728E-1,1.1794695E0,2.783321E-1,9.103298E-3,8.616979E-1,3.5625276E-1,0E0,4.5030645E-1,4.620577E-1,2.3796542E-1,3.370549E-1,4.7123078E-1,1.7615986E-1,3.9173126E-1,4.7239918E-1,3.8609657E-1,2.345922E-1,1.31186E0,9.248922E-1,4.5208514E-1,2.7521372E-2,2.9563308E-2,0E0,9.245458E-2,1.2080294E-1,6.3830934E-2,1.9512188E-1,2.95578E-1,6.289411E-1,1.3388038E-1,2.8996947E-1,1.2538493E-1,2.6895306E-1,3.7110484E-1,0E0,1.117301E-2,1.2947391E-1,2.1224612E-1,0E0,0E0,3.3402014E-1,1.5905434E-1,0E0,8.846004E-3,0E0,1.8642259E-1,6.7538416E-1,0E0,0E0,0E0,0E0,0E0,0E0,0E0,0E0,0E0,0E0,0E0,0E0,0E0,0E0,0E0,0E0,0E0,0E0,0E0,0E0,0E0,0E0,0E0,0E0,0E0,0E0,0E0,0E0,0E0,0E0,0E0,0E0,0E0,0E0,0E0,0E0,0E0,0E0,0E0,0E0,0E0,0E0,0E0,0E0,0E0,0E0,0E0,0E0],"parents":[2147483647,0,0,1,1,2,2,3,3,4,4,5,5,6,6,7,7,8,8,9,9,10,10,11,11,12,12,13,13,14,14,15,15,16,16,17,17,18,18,19,19,21,21,22,22,23,23,24,24,25,25,26,26,27,27,28,28,29,29,30,30,31,31,32,32,33,33,34,34,35,35,37,37,38,38,39,39,40,40,41,41,42,42,43,43,44,44,45,45,46,46,47,47,49,49,50,50,51,51,54,54,55,55,57,57,59,59,60,60],"right_children":[2,4,6,8,10,12,14,16,18,20,22,24,26,28,30,32,34,36,38,40,-1,42,44,46,48,50,52,54,56,58,60,62,64,66,68,70,-1,72,74,76,78,80,82,84,86,88,90,92,-1,94,96,98,-1,-1,100,102,-1,104,-1,106,108,-1,-1,-1,-1,-1,-1,-1,-1,-1,-1,-1,-1,-1,-1,-1,-1,-1,-1,-1,-1,-1,-1,-1,-1,-1,-1,-1,-1,-1,-1,-1,-1,-1,-1,-1,-1,-1,-1,-1,-1,-1,-1,-1,-1,-1,-1,-1,-1],"split_conditions":[4.546005E-1,1.59E2,6.2331027E-1,1.38E2,1E0,4.682618E-1,8.9294845E-1,1.28E2,1.43E2,-1.2157451E-2,2.769761E-1,1.3066983E-1,4.2E1,8E0,6.1970687E-1,9.5E1,-1.2323795E-1,8E0,1.45E2,1.71E2,1.4932287E-1,-2.2080779E-1,6.505886E-1,3.6E1,8.171707E-1,1E1,1.3830036E0,4.8483497E-1,7.4503E-1,7.0397115E-1,2E0,8E1,1.13E2,-3.964719E-1,5E0,1.4E2,-2.4808718E-2,-5.341218E-1,4.4940483E-2,-1.4393659E0,1.3E1,-7.911796E-2,2.2E1,2E0,2.11E2,5E0,6.5830886E-1,5.655094E-1,8.2751445E-2,8E0,5.7223296E-1,1.6E1,-4.3598343E-2,4.008744E-2,1.4E1,6.340054E-1,1.4630339E-1,1E0,1.298061E-1,9.280177E-1,3E0,-3.80249E-3,5.5365797E-2,-8.5576996E-2,-4.4357534E-3,6.668474E-2,-2.4501434E-2,1.1397349E-1,2.4868155E-2,-5.910721E-2,-1.2328547E-1,2.4364734E-2,9.864769E-2,-8.147588E-2,-3.545678E-2,-2.4665274E-2,1.9378128E-2,1.006426E-1,-1.9791126E-3,1.247015E-2,6.1822824E-2,-7.898617E-2,3.2614857E-2,1.1734295E-2,1.0335381E-1,-4.5183495E-2,4.8089508E-2,-1.6643822E-2,4.608415E-2,-3.659661E-2,1.56507E-2,-2.6678836E-2,-1.0001208E-1,9.374068E-2,2.1503735E-2,-5.504219E-2,2.1161582E-2,7.045286E-2,-1.2745732E-2,-6.155348E-3,-1.4178199E-1,2.0142406E-2,-7.266178E-2,4.0744545E-4,-3.3749666E-2,-9.5483445E-2,-3.318974E-2,1.0771332E-1,-2.062063E-2],"split_indices":[6,2,3,2,0,5,4,2,2,6,5,3,2,1,6,2,4,1,2,2,0,5,4,2,4,2,4,4,4,3,1,2,2,4,1,2,0,5,3,4,1,6,1,0,2,2,6,4,0,1,3,1,0,0,2,4,0,0,0,6,1,0,0,0,0,0,0,0,0,0,0,0,0,0,0,0,0,0,0,0,0,0,0,0,0,0,0,0,0,0,0,0,0,0,0,0,0,0,0,0,0,0,0,0,0,0,0,0,0],"split_type":[0,0,0,0,0,0,0,0,0,0,0,0,0,0,0,0,0,0,0,0,0,0,0,0,0,0,0,0,0,0,0,0,0,0,0,0,0,0,0,0,0,0,0,0,0,0,0,0,0,0,0,0,0,0,0,0,0,0,0,0,0,0,0,0,0,0,0,0,0,0,0,0,0,0,0,0,0,0,0,0,0,0,0,0,0,0,0,0,0,0,0,0,0,0,0,0,0,0,0,0,0,0,0,0,0,0,0,0,0],"sum_hessian":[7.72E2,5.03E2,2.69E2,2.91E2,2.12E2,1.16E2,1.53E2,2.49E2,4.2E1,2.7E1,1.85E2,8.4E1,3.2E1,2E1,1.33E2,2.16E2,3.3E1,1E1,3.2E1,2.4E1,3E0,1.64E2,2.1E1,5.1E1,3.3E1,1.3E1,1.9E1,1.4E1,6E0,5E0,1.28E2,1.65E2,5.1E1,2.4E1,9E0,9E0,1E0,7E0,2.5E1,1.4E1,1E1,1.47E2,1.7E1,1.1E1,1E1,1.7E1,3.4E1,3.2E1,1E0,3E0,1E1,1.8E1,1E0,1E0,1.3E1,5E0,1E0,2E0,3E0,7.7E1,5.1E1,1.19E2,4.6E1,2.1E1,3E1,1.8E1,6E0,8E0,1E0,5E0,4E0,5E0,2E0,1.1E1,1.4E1,3E0,1.1E1,8E0,2E0,1.36E2,1.1E1,1E1,7E0,2E0,9E0,5E0,5E0,3E0,1.4E1,1.5E1,1.9E1,2.4E1,8E0,2E0,1E0,8E0,2E0,1.5E1,3E0,2E0,1.1E1,3E0,2E0,1E0,1E0,4E0,7.3E1,3E0,4.8E1],"tree_param":{"num_deleted":"0","num_feature":"7","num_nodes":"109","size_leaf_vector":"1"}},{"base_weights":[7.2385394E-4,2.75575E-2,-3.538179E-2,1.6401577E-1,2.1071093E-2,-5.7518266E-2,2.1648994E-2,2.1910636E-1,-2.2119968E-1,1.7798016E-2,2.4667454E-1,-4.1421287E-2,-3.5722625E-1,1.4905204E-1,-2.4825282E-2,3.6802602E-1,1.3351987E-1,9.089184E-3,-1.0862904E-1,-1.1942279E-1,2.178054E-2,9.967529E-2,5.0347805E-2,-1.637789E-1,-1.9763656E-2,-1.552768E-1,-1.10598266E-1,-7.6534085E-2,1.9528878E-1,-2.219666E-1,3.4046683E-2,1.3376488E-1,4.2462446E-2,8.598492E-2,7.899242E-2,-1.6694069E-3,-1.5848844E-1,1.5666538E-1,1.3707846E-2,2.1370769E-2,1.2857438E-3,-1.0324174E-1,-4.2907873E-1,2.6995616E-2,-7.758248E-2,-1.4000321E-2,-8.90382E-2,-3.6855876E-2,2.1533398E-1,7.522134E-2,-2.7019608E-1,1.08228795E-1,-2.8906632E-2,3.834083E-2,1.3149447E-2,1.1450434E-2,-1.8177295E-2,-5.554499E-2,8.220578E-3,-7.064088E-2,5.5557862E-2,2.1897994E-3,2.8684044E-2,-4.530245E-2,3.150927E-2,-5.059321E-2,-1.5514053E-1,-4.452031E-3,3.6757953E-2,-7.909144E-3,-4.943721E-2,1.2986577E-2,-3.6473393E-2,1.1091093E-1,4.030174E-2,-1.200589E-2,-9.732157E-2,-1.5842724E-3,7.595273E-2,1.2960249E-2,-3.432028E-2],"categories":[],"categories_nodes":[],"categories_segments":[],"categories_sizes":[],"default_left":[0,0,0,0,0,0,0,0,0,0,0,0,0,0,0,0,0,0,0,0,0,0,0,0,0,0,0,0,0,0,0,0,0,0,0,0,0,0,0,0,0,0,0,0,0,0,0,0,0,0,0,0,0,0,0,0,0,0,0,0,0,0,0,0,0,0,0,0,0,0,0,0,0,0,0,0,0,0,0,0,0],"id":11,"left_children":[1,3,5,7,9,11,13,15,17,19,21,23,25,27,29,31,33,-1,-1,35,37,-1,39,41,43,-1,45,-1,47,49,51,-1,-1,53,-1,55,57,59,61,-1,-1,63,65,67,69,71,-1,-1,73,-1,75,77,79,-1,-1,-1,-1,-1,-1,-1,-1,-1,-1,-1,-1,-1,-1,-1,-1,-1,-1,-1,-1,-1,-1,-1,-1,-1,-1,-1,-1],"loss_changes":[7.49893E-1,3.89539E-1,4.178572E-1,4.729011E-1,3.0943698E-1,1.1334087E0,5.5434996E-1,1.8028033E-1,1.1727613E-1,2.3212478E-1,8.407751E-2,5.983078E-1,4.173559E-1,5.170033E-1,8.083779E-1,4.2689443E-2,5.7562634E-2,0E0,0E0,5.493675E-2,4.43206E-1,0E0,2.5811368E-3,5.017581E-1,5.2658623E-1,0E0,1.0376155E-1,0E0,1.731304E-1,4.3252087E-1,2.5530908E-1,0E0,0E0,1.37886405E-2,0E0,1.17018E-2,4.9678564E-2,3.0089957E-1,2.0243587E-1,0E0,0E0,3.043652E-1,5.0385833E-2,4.3345147E-1,3.8425738E-1,3.6077973E-2,0E0,0E0,2.2540271E-1,0E0,1.7418253E-1,4.126592E-1,1.8988551E-1,0E0,0E0,0E0,0E0,0E0,0E0,0E0,0E0,0E0,0E0,0E0,0E0,0E0,0E0,0E0,0E0,0E0,0E0,0E0,0E0,0E0,0E0,0E0,0E0,0E0,0E0,0E0,0E0],"parents":[2147483647,0,0,1,1,2,2,3,3,4,4,5,5,6,6,7,7,8,8,9,9,10,10,11,11,12,12,13,13,14,14,15,15,16,16,19,19,20,20,22,22,23,23,24,24,26,26,28,28,29,29,30,30,33,33,35,35,36,36,37,37,38,38,41,41,42,42,43,43,44,44,45,45,48,48,50,50,51,51,52,52],"right_children":[2,4,6,8,10,12,14,16,18,20,22,24,26,28,30,32,34,-1,-1,36,38,-1,40,42,44,-1,46,-1,48,50,52,-1,-1,54,-1,56,58,60,62,-1,-1,64,66,68,70,72,-1,-1,74,-1,76,78,80,-1,-1,-1,-1,-1,-1,-1,-1,-1,-1,-1,-1,-1,-1,-1,-1,-1,-1,-1,-1,-1,-1,-1,-1,-1,-1,-1,-1],"split_conditions":[2.3137271E-1,-1.826925E0,1.13E2,-1.31672E0,6.2331027E-1,1.1E2,1.38E2,8.3E1,2E0,8E0,7.2601575E-1,3.6238158E-1,1.1494247E0,-7.1951276E-1,1.53E2,-1.9417493E0,-1.5916572E0,9.089184E-3,-1.0862904E-1,3E0,2E1,9.967529E-2,2E0,2.808624E-1,1.1956127E0,-1.552768E-1,3E0,-7.6534085E-2,1.0683994E-1,3.5185874E-1,1.8669963E-1,1.3376488E-1,4.2462446E-2,1.88E2,7.899242E-2,1.02773905E-1,3.6E1,-1.36803E0,2.37E2,2.1370769E-2,1.2857438E-3,1.1860993E0,3.3E1,9.445264E-1,1.02E2,1.5099181E0,-8.90382E-2,-3.6855876E-2,5.522292E-1,7.522134E-2,2.1320973E-1,2E0,3E0,3.834083E-2,1.3149447E-2,1.1450434E-2,-1.8177295E-2,-5.554499E-2,8.220578E-3,-7.064088E-2,5.5557862E-2,2.1897994E-3,2.8684044E-2,-4.530245E-2,3.150927E-2,-5.059321E-2,-1.5514053E-1,-4.452031E-3,3.6757953E-2,-7.909144E-3,-4.943721E-2,1.2986577E-2,-3.6473393E-2,1.1091093E-1,4.030174E-2,-1.200589E-2,-9.732157E-2,-1.5842724E-3,7.595273E-2,1.2960249E-2,-3.432028E-2],"split_indices":[5,3,2,6,3,2,2,2,0,2,3,3,4,6,2,5,4,0,0,2,2,0,1,3,4,0,0,0,3,3,6,0,0,2,0,4,1,3,2,0,0,6,2,5,2,3,0,0,5,0,4,0,0,0,0,0,0,0,0,0,0,0,0,0,0,0,0,0,0,0,0,0,0,0,0,0,0,0,0,0,0],"split_type":[0,0,0,0,0,0,0,0,0,0,0,0,0,0,0,0,0,0,0,0,0,0,0,0,0,0,0,0,0,0,0,0,0,0,0,0,0,0,0,0,0,0,0,0,0,0,0,0,0,0,0,0,0,0,0,0,0,0,0,0,0,0,0,0,0,0,0,0,0,0,0,0,0,0,0,0,0,0,0,0,0],"sum_hessian":[7.72E2,4.43E2,3.29E2,1.9E1,4.24E2,2.37E2,9.2E1,1.7E1,2E0,4.19E2,5E0,2.26E2,1.1E1,2.4E1,6.8E1,5E0,1.2E1,1E0,1E0,1.1E1,4.08E2,3E0,2E0,3.3E1,1.93E2,6E0,5E0,2E0,2.2E1,1.5E1,5.3E1,3E0,2E0,1E1,2E0,3E0,8E0,2.2E1,3.86E2,1E0,1E0,2.8E1,5E0,1.07E2,8.6E1,4E0,1E0,1E0,2.1E1,1E0,1.4E1,2.4E1,2.9E1,4E0,6E0,2E0,1E0,7E0,1E0,1E0,2.1E1,3.59E2,2.7E1,2.3E1,5E0,2E0,3E0,7.5E1,3.2E1,5.5E1,3.1E1,3E0,1E0,6E0,1.5E1,3E0,1.1E1,1.4E1,1E1,1.6E1,1.3E1],"tree_param":{"num_deleted":"0","num_feature":"7","num_nodes":"81","size_leaf_vector":"1"}},{"base_weights":[2.940765E-4,3.3978462E-2,-1.8270053E-2,2.3761189E-2,1.3091463E-1,-2.1899318E-2,1.0902231E-1,1.5554314E-2,1.7218234E-1,2.748158E-1,3.8566027E-2,8.296642E-3,-3.593087E-2,4.133129E-2,1.5462416E-1,6.579041E-2,-1.7695569E-2,2.6430255E-1,2.0658335E-2,1.461277E-1,1.0087598E-1,9.94926E-2,-2.664566E-2,-9.744771E-3,1.6564047E-1,5.9796788E-2,-5.0763555E-2,2.3827458E-2,1.0208893E-2,8.0323026E-2,6.265336E-2,8.796799E-2,-1.1797384E-2,-2.7795278E-2,6.576908E-2,6.2470816E-2,1.3515498E-1,-2.177987E-2,8.543718E-2,-4.333496E-3,7.43639E-2,3.3118844E-2,1.8396379E-3,-2.5307752E-2,3.639698E-2,3.8478844E-2,-9.731685E-2,1.1737952E-1,8.3475955E-2,2.0613167E-1,2.2585684E-2,-1.739964E-1,-3.358279E-2,-7.8594685E-4,8.128238E-3,2.6627399E-2,6.9874767E-3,2.0550938E-2,1.0286474E-1,3.741659E-2,-2.9615145E-2,-6.207797E-2,-5.4474985E-3,-3.3677675E-2,4.0265396E-2,3.0744886E-2,5.144978E-3,1.19237425E-2,-1.38738165E-2,-9.661532E-3,1.8479634E-2,-2.0072568E-2,3.0754603E-2,3.3916857E-2,-3.5420373E-2,1.0532652E-3,4.5454767E-2,2.0279098E-2,1.08720236E-1,1.230409E-2,-5.9980683E-2,-6.5830566E-2,-1.153676E-2,-1.6867999E-2,9.136937E-3,1.5821458E-3,-2.8447867E-3],"categories":[],"categories_nodes":[],"categories_segments":[],"categories_sizes":[],"default_left":[0,0,0,0,0,0,0,0,0,0,0,0,0,0,0,0,0,0,0,0,0,0,0,0,0,0,0,0,0,0,0,0,0,0,0,0,0,0,0,0,0,0,0,0,0,0,0,0,0,0,0,0,0,0,0,0,0,0,0,0,0,0,0,0,0,0,0,0,0,0,0,0,0,0,0,0,0,0,0,0,0,0,0,0,0,0,0],"id":12,"left_children":[1,3,5,7,9,11,13,15,17,19,21,23,25,27,29,31,33,35,37,39,-1,41,43,45,47,49,51,-1,53,55,-1,57,59,61,-1,63,-1,-1,65,67,-1,-1,-1,-1,69,71,73,-1,75,77,79,81,83,85,-1,-1,-1,-1,-1,-1,-1,-1,-1,-1,-1,-1,-1,-1,-1,-1,-1,-1,-1,-1,-1,-1,-1,-1,-1,-1,-1,-1,-1,-1,-1,-1,-1],"loss_changes":[4.839942E-1,2.6925573E-1,2.3291442E-1,3.018403E-1,3.3491734E-1,2.0621446E-1,3.6824882E-2,3.9870614E-1,1.7599946E-1,2.9926777E-2,7.019418E-2,4.4161344E-1,4.7444174E-1,7.488101E-3,1.5454054E-2,1.6450521E-1,3.506685E-1,2.7252704E-1,4.244954E-2,7.76228E-2,0E0,8.4846765E-3,3.5816126E-2,5.949706E-1,2.6395214E-1,2.4038208E-1,6.039201E-1,0E0,9.495467E-4,3.3797324E-4,0E0,3.4369022E-1,2.7336922E-1,2.361953E-1,0E0,7.7748984E-2,0E0,0E0,2.8984584E-3,7.3805153E-3,0E0,0E0,0E0,0E0,1.0628275E-2,6.209854E-1,2.3162144E-1,0E0,7.019868E-2,1.7034101E-1,1.5992267E-1,2.0711946E-1,3.7003693E-1,2.6080888E-4,0E0,0E0,0E0,0E0,0E0,0E0,0E0,0E0,0E0,0E0,0E0,0E0,0E0,0E0,0E0,0E0,0E0,0E0,0E0,0E0,0E0,0E0,0E0,0E0,0E0,0E0,0E0,0E0,0E0,0E0,0E0,0E0,0E0],"parents":[2147483647,0,0,1,1,2,2,3,3,4,4,5,5,6,6,7,7,8,8,9,9,10,10,11,11,12,12,13,13,14,14,15,15,16,16,17,17,18,18,19,19,21,21,22,22,23,23,24,24,25,25,26,26,28,28,29,29,31,31,32,32,33,33,35,35,38,38,39,39,44,44,45,45,46,46,48,48,49,49,50,50,51,51,52,52,53,53],"right_children":[2,4,6,8,10,12,14,16,18,20,22,24,26,28,30,32,34,36,38,40,-1,42,44,46,48,50,52,-1,54,56,-1,58,60,62,-1,64,-1,-1,66,68,-1,-1,-1,-1,70,72,74,-1,76,78,80,82,84,86,-1,-1,-1,-1,-1,-1,-1,-1,-1,-1,-1,-1,-1,-1,-1,-1,-1,-1,-1,-1,-1,-1,-1,-1,-1,-1,-1,-1,-1,-1,-1,-1,-1],"split_conditions":[-4.493555E-1,-2.2272377E-1,3.3E1,-5.4641324E-1,-6.3699794E-1,1E0,9.544384E-2,-1.1847272E0,1.45E2,-9.9728055E-2,-3.964719E-1,1.58E2,2.1E1,4E1,6.452701E-2,1.3E1,2.44E2,-5.315088E-1,2.08E2,2E0,1.0087598E-1,-2.1442436E-1,-6.976013E-1,1.02E2,-1.9322975E-1,2.1221077E-1,3.5E1,2.3827458E-2,-1.7883687E-3,3.7E1,6.265336E-2,-7.967405E-1,-1.314003E0,-1.1470968E0,6.576908E-2,2E0,1.3515498E-1,-2.177987E-2,2.2E1,1.24E2,7.43639E-2,3.3118844E-2,1.8396379E-3,-2.5307752E-2,2.1E1,2.0568585E-1,-4.2655997E-2,1.1737952E-1,6.4995813E-1,1.2E1,1.6822882E0,5E0,9.335494E-1,-7.644366E-3,8.128238E-3,2.6627399E-2,6.9874767E-3,2.0550938E-2,1.0286474E-1,3.741659E-2,-2.9615145E-2,-6.207797E-2,-5.4474985E-3,-3.3677675E-2,4.0265396E-2,3.0744886E-2,5.144978E-3,1.19237425E-2,-1.38738165E-2,-9.661532E-3,1.8479634E-2,-2.0072568E-2,3.0754603E-2,3.3916857E-2,-3.5420373E-2,1.0532652E-3,4.5454767E-2,2.0279098E-2,1.08720236E-1,1.230409E-2,-5.9980683E-2,-6.5830566E-2,-1.153676E-2,-1.6867999E-2,9.136937E-3,1.5821458E-3,-2.8447867E-3],"split_indices":[5,6,1,5,5,0,3,4,2,6,4,2,2,2,6,1,2,4,2,0,0,3,3,2,3,6,2,0,4,1,0,3,3,6,0,1,0,0,1,2,0,0,0,0,1,6,6,0,3,2,5,1,6,4,0,0,0,0,0,0,0,0,0,0,0,0,0,0,0,0,0,0,0,0,0,0,0,0,0,0,0,0,0,0,0,0,0],"split_type":[0,0,0,0,0,0,0,0,0,0,0,0,0,0,0,0,0,0,0,0,0,0,0,0,0,0,0,0,0,0,0,0,0,0,0,0,0,0,0,0,0,0,0,0,0,0,0,0,0,0,0,0,0,0,0,0,0,0,0,0,0,0,0,0,0,0,0,0,0,0,0,0,0,0,0,0,0,0,0,0,0,0,0,0,0,0,0],"sum_hessian":[7.72E2,2.74E2,4.98E2,2.49E2,2.5E1,4.85E2,1.3E1,2.37E2,1.2E1,9E0,1.6E1,1.54E2,3.31E2,6E0,7E0,9.4E1,1.43E2,7E0,5E0,4E0,5E0,8E0,8E0,1.39E2,1.5E1,4.4E1,2.87E2,2E0,4E0,4E0,3E0,7.3E1,2.1E1,1.38E2,5E0,4E0,3E0,2E0,3E0,2E0,2E0,7E0,1E0,4E0,4E0,9E1,4.9E1,3E0,1.2E1,8E0,3.6E1,3.4E1,2.53E2,3E0,1E0,3E0,1E0,6.9E1,4E0,8E0,1.3E1,6E0,1.32E2,1E0,3E0,2E0,1E0,1E0,1E0,1E0,3E0,3.4E1,5.6E1,4E0,4.5E1,6E0,6E0,5E0,3E0,3.4E1,2E0,2.5E1,9E0,1.87E2,6.6E1,2E0,1E0],"tree_param":{"num_deleted":"0","num_feature":"7","num_nodes":"87","size_leaf_vector":"1"}},{"base_weights":[1.2062876E-3,1.1591421E-2,-3.3071358E-2,7.57891E-3,1.2071477E-1,-1.4241791E-2,-1.1651694E-1,1.2139614E-2,-9.7443044E-2,5.4618318E-2,3.2129973E-1,-4.2745862E-2,3.4733195E-2,1.1012407E-1,-1.5157515E-1,7.7908356E-3,1.1635385E-1,-6.218163E-2,-1.3626835E-1,-8.297626E-2,1.1886408E-1,1.3467534E-1,2.5974538E-2,-9.559133E-2,2.7898073E-2,3.1051406E-1,7.0148124E-3,1.439429E-1,-3.772688E-3,-4.7450718E-2,-2.4559458E-1,1.0592262E-2,-6.090868E-2,2.1468511E-1,1.65207E-2,7.367168E-3,-1.5333179E-1,-3.6703315E-2,-2.8266907E-3,1.4496619E-1,-2.5238873E-2,-3.2627895E-1,-7.061074E-2,2.0941958E-1,2.6141373E-3,1.19142726E-1,-5.399895E-3,-6.803966E-2,6.629889E-2,5.6589033E-2,6.6170454E-2,-4.6693638E-2,6.0424153E-3,-2.8977636E-1,5.5942584E-2,3.496155E-2,2.10779E-3,7.5817704E-2,-2.485807E-2,-7.603741E-2,1.9231759E-2,-1.2618549E-2,3.142552E-2,-6.511741E-2,-1.0433793E-3,-7.6161865E-3,6.3441754E-3,-3.1613826E-3,5.4208066E-2,-3.5990598E-3,-1.2055508E-1,-3.9997928E-2,-1.1152834E-2,7.136363E-2,1.4337445E-2,-7.518794E-2,7.2737355E-3,-4.101329E-2,3.2536022E-2,1.209633E-1,7.92261E-3,3.177531E-2,-1.9986033E-3,1.7584242E-2,-3.0183489E-2,-9.832782E-2,-1.2375642E-2],"categories":[],"categories_nodes":[],"categories_segments":[],"categories_sizes":[],"default_left":[0,0,0,0,0,0,0,0,0,0,0,0,0,0,0,0,0,0,0,0,0,0,0,0,0,0,0,0,0,0,0,0,0,0,0,0,0,0,0,0,0,0,0,0,0,0,0,0,0,0,0,0,0,0,0,0,0,0,0,0,0,0,0,0,0,0,0,0,0,0,0,0,0,0,0,0,0,0,0,0,0,0,0,0,0,0,0],"id":13,"left_children":[1,3,5,7,9,11,13,15,17,19,21,23,25,27,29,31,33,35,-1,37,39,-1,-1,41,43,45,47,49,-1,51,53,55,-1,57,59,61,63,-1,65,67,-1,69,71,73,75,-1,-1,77,79,-1,81,-1,83,85,-1,-1,-1,-1,-1,-1,-1,-1,-1,-1,-1,-1,-1,-1,-1,-1,-1,-1,-1,-1,-1,-1,-1,-1,-1,-1,-1,-1,-1,-1,-1,-1,-1],"loss_changes":[2.7555427E-1,2.5917318E-1,2.8116453E-1,2.7611402E-1,2.608682E-1,2.080907E-1,2.7889773E-1,2.4880928E-1,2.7369303E-1,1.6014066E-1,1.10903084E-1,3.5358876E-1,4.1825283E-1,2.2557974E-2,2.7224827E-1,3.1516644E-1,2.1242109E-1,1.4693543E-1,0E0,1.8586196E-2,7.577869E-2,0E0,0E0,2.881477E-1,1.8762526E-1,1.4944142E-1,2.3143725E-1,1.4199987E-3,0E0,8.775562E-2,3.4038043E-1,1.9716707E-1,0E0,1.4544767E-1,1.7041191E-1,7.1796745E-2,9.4741285E-2,0E0,2.1594705E-3,6.30174E-2,0E0,1.1393261E-1,9.988727E-2,1.1630416E-2,2.0876303E-1,0E0,0E0,2.935869E-1,3.790968E-1,0E0,9.390292E-3,0E0,6.757411E-2,1.1863506E-1,0E0,0E0,0E0,0E0,0E0,0E0,0E0,0E0,0E0,0E0,0E0,0E0,0E0,0E0,0E0,0E0,0E0,0E0,0E0,0E0,0E0,0E0,0E0,0E0,0E0,0E0,0E0,0E0,0E0,0E0,0E0,0E0,0E0],"parents":[2147483647,0,0,1,1,2,2,3,3,4,4,5,5,6,6,7,7,8,8,9,9,10,10,11,11,12,12,13,13,14,14,15,15,16,16,17,17,19,19,20,20,23,23,24,24,25,25,26,26,27,27,29,29,30,30,31,31,33,33,34,34,35,35,36,36,38,38,39,39,41,41,42,42,43,43,44,44,47,47,48,48,50,50,52,52,53,53],"right_children":[2,4,6,8,10,12,14,16,18,20,22,24,26,28,30,32,34,36,-1,38,40,-1,-1,42,44,46,48,50,-1,52,54,56,-1,58,60,62,64,-1,66,68,-1,70,72,74,76,-1,-1,78,80,-1,82,-1,84,86,-1,-1,-1,-1,-1,-1,-1,-1,-1,-1,-1,-1,-1,-1,-1,-1,-1,-1,-1,-1,-1,-1,-1,-1,-1,-1,-1,-1,-1,-1,-1,-1,-1],"split_conditions":[8.3485913E-1,9.335494E-1,3E0,7.841189E-1,5.522292E-1,2E0,1.1E1,1.2303743E0,8.872175E-1,2E0,2E0,1.3149463E0,3E0,1.1956127E0,9.8989516E-1,7.2958905E-1,1.14E2,6.027683E-1,-1.3626835E-1,1.91591E-1,1.2193131E0,1.3467534E-1,2.5974538E-2,6.9847566E-1,1.1126636E0,1.0861917E0,1.177503E0,2E0,-3.772688E-3,9.335494E-1,3E1,-1.8504725E0,-6.090868E-2,7.9822814E-1,1.23E2,3.886294E-1,7.757002E-1,-3.6703315E-2,1E0,-9.41435E-2,-2.5238873E-2,1.02E2,1.3064961E0,2E0,1.2607284E0,1.19142726E-1,-5.399895E-3,1.52E2,9.8989516E-1,5.6589033E-2,4.2070806E-1,-4.6693638E-2,1.0720904E0,1.7375497E0,5.5942584E-2,3.496155E-2,2.10779E-3,7.5817704E-2,-2.485807E-2,-7.603741E-2,1.9231759E-2,-1.2618549E-2,3.142552E-2,-6.511741E-2,-1.0433793E-3,-7.6161865E-3,6.3441754E-3,-3.1613826E-3,5.4208066E-2,-3.5990598E-3,-1.2055508E-1,-3.9997928E-2,-1.1152834E-2,7.136363E-2,1.4337445E-2,-7.518794E-2,7.2737355E-3,-4.101329E-2,3.2536022E-2,1.209633E-1,7.92261E-3,3.177531E-2,-1.9986033E-3,1.7584242E-2,-3.0183489E-2,-9.832782E-2,-1.2375642E-2],"split_indices":[4,6,0,6,5,1,2,3,3,0,0,3,1,4,5,4,2,4,0,3,6,0,0,6,4,3,4,1,0,6,1,3,0,4,2,5,4,0,0,3,0,2,6,0,4,0,0,2,5,0,3,0,4,3,0,0,0,0,0,0,0,0,0,0,0,0,0,0,0,0,0,0,0,0,0,0,0,0,0,0,0,0,0,0,0,0,0],"split_type":[0,0,0,0,0,0,0,0,0,0,0,0,0,0,0,0,0,0,0,0,0,0,0,0,0,0,0,0,0,0,0,0,0,0,0,0,0,0,0,0,0,0,0,0,0,0,0,0,0,0,0,0,0,0,0,0,0,0,0,0,0,0,0,0,0,0,0,0,0,0,0,0,0,0,0,0,0,0,0,0,0,0,0,0,0,0,0],"sum_hessian":[7.72E2,5.93E2,1.79E2,5.73E2,2E1,1.47E2,3.2E1,5.5E2,2.3E1,1.6E1,4E0,9.3E1,5.4E1,4E0,2.8E1,5.29E2,2.1E1,2.2E1,1E0,5E0,1.1E1,2E0,2E0,5.3E1,4E1,4E0,5E1,3E0,1E0,1.4E1,1.4E1,5.23E2,6E0,1E1,1.1E1,1.3E1,9E0,3E0,2E0,1E1,1E0,4E0,4.9E1,4E0,3.6E1,3E0,1E0,2.2E1,2.8E1,1E0,2E0,4E0,1E1,1.3E1,1E0,1.6E1,5.07E2,9E0,1E0,1E0,1E1,9E0,4E0,6E0,3E0,1E0,1E0,2E0,8E0,1E0,3E0,1.6E1,3.3E1,3E0,1E0,2E0,3.4E1,1.6E1,6E0,2E0,2.6E1,1E0,1E0,7E0,3E0,1.1E1,2E0],"tree_param":{"num_deleted":"0","num_feature":"7","num_nodes":"87","size_leaf_vector":"1"}},{"base_weights":[8.190626E-4,-1.0350215E-2,2.6277758E-2,-4.130511E-4,-8.9509405E-2,1.052358E-1,1.5573917E-2,-9.896638E-3,1.6520086E-1,-1.2766689E-1,7.375947E-2,6.9516204E-2,3.0217433E-1,7.620555E-2,5.7734125E-3,1.040953E-2,-5.59891E-2,-9.513414E-2,2.0329386E-1,-2.0202594E-1,-4.820117E-2,-4.7595996E-2,1.6724136E-1,-2.5211335E-3,1.6142927E-1,1.04722746E-1,2.422049E-2,4.09704E-2,8.58548E-2,-8.216915E-2,2.1055192E-2,-1.0403415E-2,1.11583516E-1,-9.2649624E-2,1.3237354E-2,3.949714E-3,-4.06868E-2,1.21218406E-1,2.6842818E-1,-1.583772E-1,-3.1385076E-1,-1.20924644E-1,4.0659647E-2,-3.6358103E-2,1.9919872E-2,-1.6602088E-2,2.135617E-1,9.265888E-2,-3.403771E-2,2.355314E-1,2.5400449E-2,-3.7269872E-3,1.12858914E-1,-2.4340189E-1,-5.1873315E-2,1.09381415E-2,8.879838E-2,-6.272886E-2,-1.7226991E-3,2.4868663E-2,7.985323E-2,-4.9985252E-2,-5.957415E-3,6.367339E-2,-7.495191E-3,5.955507E-2,-5.3054813E-2,4.5657165E-2,1.0779022E-1,-6.3346945E-2,-3.1678393E-2,-1.0715549E-1,-1.4576984E-2,-2.101096E-2,-8.525066E-2,4.8918273E-2,-5.4775956E-3,7.9940446E-2,-7.6455832E-3,3.199277E-2,7.606173E-3,-4.0295184E-2,4.293887E-3,4.966736E-3,8.078042E-2,1.9903183E-2,-7.202959E-3,1.977384E-2,-5.521351E-2,2.2043003E-2,5.4077577E-2,-9.005876E-2,-1.0952998E-2,-5.7929136E-2,-4.1921106E-3,6.984113E-3,-3.2288752E-2,5.0433043E-2,6.5744105E-3],"categories":[],"categories_nodes":[],"categories_segments":[],"categories_sizes":[],"default_left":[0,0,0,0,0,0,0,0,0,0,0,0,0,0,0,0,0,0,0,0,0,0,0,0,0,0,0,0,0,0,0,0,0,0,0,0,0,0,0,0,0,0,0,0,0,0,0,0,0,0,0,0,0,0,0,0,0,0,0,0,0,0,0,0,0,0,0,0,0,0,0,0,0,0,0,0,0,0,0,0,0,0,0,0,0,0,0,0,0,0,0,0,0,0,0,0,0,0,0],"id":14,"left_children":[1,3,5,7,9,11,13,15,17,19,21,23,25,27,29,31,33,35,37,39,41,43,45,47,49,-1,-1,51,-1,53,55,57,59,61,63,-1,-1,65,67,69,71,73,75,-1,-1,-1,77,79,81,83,85,87,89,91,93,95,97,-1,-1,-1,-1,-1,-1,-1,-1,-1,-1,-1,-1,-1,-1,-1,-1,-1,-1,-1,-1,-1,-1,-1,-1,-1,-1,-1,-1,-1,-1,-1,-1,-1,-1,-1,-1,-1,-1,-1,-1,-1,-1],"loss_changes":[2.2007859E-1,4.2316338E-1,1.9781749E-1,7.53959E-1,3.8321248E-1,1.7596179E-1,1.2375214E-1,4.2550927E-1,2.7718067E-1,2.7980286E-1,1.440945E-1,1.6593629E-1,1.3360709E-2,2.0283365E-1,2.4497941E-1,6.6657114E-1,3.5399148E-1,1.9325174E-2,9.041786E-2,7.2318435E-2,1.6647345E-1,5.8386065E-2,8.398892E-2,4.8150115E-2,1.0489768E-1,0E0,0E0,8.3964564E-2,0E0,1.19260296E-1,1.0525971E-1,2.4236992E-1,2.1742427E-1,4.8665696E-1,3.7801245E-1,0E0,0E0,3.1158987E-1,7.207155E-2,3.341949E-2,5.161357E-2,9.639846E-2,8.951736E-2,0E0,0E0,0E0,8.267379E-2,1.0608844E-3,6.0105484E-2,4.7254562E-2,1.1708062E-2,2.2560519E-1,1.329872E-2,3.6040694E-2,1.2575758E-1,2.0152608E-1,1.02409154E-1,0E0,0E0,0E0,0E0,0E0,0E0,0E0,0E0,0E0,0E0,0E0,0E0,0E0,0E0,0E0,0E0,0E0,0E0,0E0,0E0,0E0,0E0,0E0,0E0,0E0,0E0,0E0,0E0,0E0,0E0,0E0,0E0,0E0,0E0,0E0,0E0,0E0,0E0,0E0,0E0,0E0,0E0],"parents":[2147483647,0,0,1,1,2,2,3,3,4,4,5,5,6,6,7,7,8,8,9,9,10,10,11,11,12,12,13,13,14,14,15,15,16,16,17,17,18,18,19,19,20,20,21,21,22,22,23,23,24,24,27,27,29,29,30,30,31,31,32,32,33,33,34,34,37,37,38,38,39,39,40,40,41,41,42,42,46,46,47,47,48,48,49,49,50,50,51,51,52,52,53,53,54,54,55,55,56,56],"right_children":[2,4,6,8,10,12,14,16,18,20,22,24,26,28,30,32,34,36,38,40,42,44,46,48,50,-1,-1,52,-1,54,56,58,60,62,64,-1,-1,66,68,70,72,74,76,-1,-1,-1,78,80,82,84,86,88,90,92,94,96,98,-1,-1,-1,-1,-1,-1,-1,-1,-1,-1,-1,-1,-1,-1,-1,-1,-1,-1,-1,-1,-1,-1,-1,-1,-1,-1,-1,-1,-1,-1,-1,-1,-1,-1,-1,-1,-1,-1,-1,-1,-1,-1],"split_conditions":[1.58E2,1.38E2,1E0,1.31E2,6.9847566E-1,-1.2157451E-2,1.75E2,9.6E1,-8.9707583E-1,3E0,1.53E2,1.71E2,1.3E1,1.73E2,1.86E2,8E1,1.13E2,-1.0311002E0,1.34E2,2E0,-5.585844E-1,2.2E1,1.3340239E-1,-1.1693014E0,1.96E2,1.04722746E-1,2.422049E-2,-8.7984204E-1,8.58548E-2,-1.4917058E0,6.923091E-1,-1.6498241E0,9.2E1,1.1860993E0,1.15E2,3.949714E-3,-4.06868E-2,2E0,3E0,4.4940483E-2,8.7168336E-1,1.49E2,-4.6092945E-1,-3.6358103E-2,1.9919872E-2,-1.6602088E-2,1.57E2,1.68E2,-4.6744627E-1,-1.2700926E0,-3.7772214E-1,-1.4508729E0,-1.3918047E-1,2.6E1,9E0,2.526356E-1,1.0650787E0,-6.272886E-2,-1.7226991E-3,2.4868663E-2,7.985323E-2,-4.9985252E-2,-5.957415E-3,6.367339E-2,-7.495191E-3,5.955507E-2,-5.3054813E-2,4.5657165E-2,1.0779022E-1,-6.3346945E-2,-3.1678393E-2,-1.0715549E-1,-1.4576984E-2,-2.101096E-2,-8.525066E-2,4.8918273E-2,-5.4775956E-3,7.9940446E-2,-7.6455832E-3,3.199277E-2,7.606173E-3,-4.0295184E-2,4.293887E-3,4.966736E-3,8.078042E-2,1.9903183E-2,-7.202959E-3,1.977384E-2,-5.521351E-2,2.2043003E-2,5.4077577E-2,-9.005876E-2,-1.0952998E-2,-5.7929136E-2,-4.1921106E-3,6.984113E-3,-3.2288752E-2,5.0433043E-2,6.5744105E-3],"split_indices":[2,2,0,2,6,6,2,2,4,0,2,2,1,2,2,2,2,3,2,0,5,1,5,3,2,0,0,6,0,6,3,3,2,6,2,0,0,0,0,3,3,2,5,0,0,0,2,2,3,3,3,4,4,1,1,3,5,0,0,0,0,0,0,0,0,0,0,0,0,0,0,0,0,0,0,0,0,0,0,0,0,0,0,0,0,0,0,0,0,0,0,0,0,0,0,0,0,0,0],"split_type":[0,0,0,0,0,0,0,0,0,0,0,0,0,0,0,0,0,0,0,0,0,0,0,0,0,0,0,0,0,0,0,0,0,0,0,0,0,0,0,0,0,0,0,0,0,0,0,0,0,0,0,0,0,0,0,0,0,0,0,0,0,0,0,0,0,0,0,0,0,0,0,0,0,0,0,0,0,0,0,0,0,0,0,0,0,0,0,0,0,0,0,0,0,0,0,0,0,0,0],"sum_hessian":[7.72E2,5.37E2,2.35E2,4.78E2,5.9E1,2.7E1,2.08E2,4.53E2,2.5E1,4.8E1,1.1E1,2.4E1,3E0,2.8E1,1.8E2,3.15E2,1.38E2,3E0,2.2E1,2.4E1,2.4E1,5E0,6E0,1.4E1,1E1,2E0,1E0,2.5E1,3E0,2.6E1,1.54E2,2.62E2,5.3E1,9E1,4.8E1,1E0,2E0,1.1E1,1.1E1,1.9E1,5E0,1.3E1,1.1E1,3E0,2E0,1E0,5E0,3E0,1.1E1,6E0,4E0,1.6E1,9E0,3E0,2.3E1,1.35E2,1.9E1,5E0,2.57E2,4.6E1,7E0,4.4E1,4.6E1,7E0,4.1E1,9E0,2E0,6E0,5E0,8E0,1.1E1,4E0,1E0,1.1E1,2E0,3E0,8E0,4E0,1E0,2E0,1E0,3E0,8E0,1E0,5E0,2E0,2E0,1.2E1,4E0,7E0,2E0,2E0,1E0,4E0,1.9E1,1.23E2,1.2E1,8E0,1.1E1],"tree_param":{"num_deleted":"0","num_feature":"7","num_nodes":"99","size_leaf_vector":"1"}},{"base_weights":[7.667449E-4,7.02426E-2,-1.9387136E-3,1.2809767E-1,-7.255729E-2,-3.8953948E-1,1.5339119E-4,1.5749794E-1,-3.622794E-2,-1.2610686E-1,-2.4764696E-2,-2.1063568E-1,-5.1306725E-2,-9.1252185E-2,9.7458053E-4,8.279908E-2,5.9251916E-2,-2.4876453E-2,6.9770813E-3,-1.4745347E-1,-9.3100555E-3,-1.3607633E-2,1.0948976E-2,-2.3265554E-2,1.7752648E-4,1.6521212E-1,-1.9555464E-3,1.1680301E-1,-1.2808482E-2,7.0040706E-3,-3.8643838E-3,-5.3117897E-2,-1.3236166E-2,4.737425E-3,1.8961431E-4,1.2956237E-2,2.3144181E-1,-3.8199492E-3,1.0102386E-1,1.4866019E-2,5.026045E-2,8.155275E-3,-1.3919092E-2,8.326328E-3,-6.9354777E-3,1.0064772E-1,3.7050344E-2,-1.7404139E-2,-2.8610273E-4,3.454458E-2,4.6675685E-3],"categories":[],"categories_nodes":[],"categories_segments":[],"categories_sizes":[],"default_left":[0,0,0,0,0,0,0,0,0,0,0,0,0,0,0,0,0,0,0,0,0,0,0,0,0,0,0,0,0,0,0,0,0,0,0,0,0,0,0,0,0,0,0,0,0,0,0,0,0,0,0],"id":15,"left_children":[1,3,5,7,9,11,13,15,17,19,21,-1,23,-1,25,27,-1,-1,29,31,-1,-1,33,-1,-1,35,37,39,41,-1,-1,-1,-1,-1,-1,43,45,47,49,-1,-1,-1,-1,-1,-1,-1,-1,-1,-1,-1,-1],"loss_changes":[1.4543241E-1,2.4888365E-1,6.0418135E-1,1.0716134E-1,1.9910455E-2,3.868749E-1,1.8572992E-1,3.7441194E-2,8.648136E-3,3.5419762E-3,4.909574E-3,0E0,4.1321367E-3,0E0,3.569196E-1,2.7504332E-2,0E0,0E0,1.2759713E-3,1.3659149E-3,0E0,0E0,1.3989641E-4,0E0,0E0,1.2809157E-1,1.4035033E-1,1.2168251E-2,5.2911527E-3,0E0,0E0,0E0,0E0,0E0,0E0,3.3108196E-3,5.9647888E-2,1.1131942E-1,1.39017105E-2,0E0,0E0,0E0,0E0,0E0,0E0,0E0,0E0,0E0,0E0,0E0,0E0],"parents":[2147483647,0,0,1,1,2,2,3,3,4,4,5,5,6,6,7,7,8,8,9,9,10,10,12,12,14,14,15,15,18,18,19,19,22,22,25,25,26,26,27,27,28,28,35,35,36,36,37,37,38,38],"right_children":[2,4,6,8,10,12,14,16,18,20,22,-1,24,-1,26,28,-1,-1,30,32,-1,-1,34,-1,-1,36,38,40,42,-1,-1,-1,-1,-1,-1,44,46,48,50,-1,-1,-1,-1,-1,-1,-1,-1,-1,-1,-1,-1],"split_conditions":[-1.7374283E0,1.75E2,-1.7052631E0,-1.2855867E0,-1.9904324E0,5E1,-2.015213E0,-2.2048345E0,-2.3498447E0,2.6E1,1.94E2,-2.1063568E-1,2E0,-9.1252185E-2,-1.6472692E0,-2.015213E0,5.9251916E-2,-2.4876453E-2,2E0,3E0,-9.3100555E-3,-1.3607633E-2,2E0,-2.3265554E-2,1.7752648E-4,-1.3723528E0,3.6E1,-1.9689207E0,2E0,7.0040706E-3,-3.8643838E-3,-5.3117897E-2,-1.3236166E-2,4.737425E-3,1.8961431E-4,2.25E2,-1.9081079E0,-1.36803E0,3.8E1,1.4866019E-2,5.026045E-2,8.155275E-3,-1.3919092E-2,8.326328E-3,-6.9354777E-3,1.0064772E-1,3.7050344E-2,-1.7404139E-2,-2.8610273E-4,3.454458E-2,4.6675685E-3],"split_indices":[4,2,4,3,5,2,5,4,4,1,2,0,0,0,5,5,0,0,1,0,0,0,0,0,0,6,1,3,1,0,0,0,0,0,0,2,3,3,1,0,0,0,0,0,0,0,0,0,0,0,0],"split_type":[0,0,0,0,0,0,0,0,0,0,0,0,0,0,0,0,0,0,0,0,0,0,0,0,0,0,0,0,0,0,0,0,0,0,0,0,0,0,0,0,0,0,0,0,0,0,0,0,0,0,0],"sum_hessian":[7.72E2,2.8E1,7.44E2,2E1,8E0,3E0,7.41E2,1.7E1,3E0,3E0,5E0,1E0,2E0,1E0,7.4E2,7E0,1E1,1E0,2E0,2E0,1E0,3E0,2E0,1E0,1E0,1.2E1,7.28E2,5E0,2E0,1E0,1E0,1E0,1E0,1E0,1E0,4E0,8E0,7.16E2,1.2E1,3E0,2E0,1E0,1E0,3E0,1E0,3E0,5E0,3.5E1,6.81E2,1E1,2E0],"tree_param":{"num_deleted":"0","num_feature":"7","num_nodes":"51","size_leaf_vector":"1"}},{"base_weights":[3.4030012E-4,-8.349263E-3,2.0148117E-2,-1.0099369E-3,-6.68024E-2,8.341319E-2,1.1576012E-2,-1.0092503E-2,1.0776269E-1,-9.903928E-2,4.619301E-2,5.4387208E-2,2.439723E-1,-3.0772647E-2,2.4052305E-2,5.156965E-3,-5.5206176E-2,5.50686E-2,1.7348188E-1,-1.7093265E-1,-7.232373E-2,-1.7840388E-1,1.2366524E-1,1.0244369E-3,1.2221033E-1,8.383537E-2,2.0630337E-2,3.701523E-2,-6.270699E-2,3.6193755E-2,-3.057653E-2,-8.7597305E-3,5.737031E-2,-7.9670414E-2,2.8778253E-2,9.8759145E-2,-1.13231085E-1,2.3242766E-1,8.548266E-2,-1.8958326E-1,-1.5535927E-2,1.0392493E-1,-1.18450135E-1,-6.9308676E-2,-2.5155772E-2,9.7099446E-2,4.3258138E-2,8.353448E-2,-2.656428E-2,1.7736673E-1,2.0549297E-2,-1.5913546E-2,6.1878793E-2,-1.1570356E-1,2.7726468E-2,9.2557985E-3,1.521955E-1,-1.630393E-1,-3.9269007E-3,1.0631011E-2,-6.857638E-3,3.4572218E-2,-2.188102E-3,-4.2268828E-2,8.958776E-4,1.38882E-2,-6.13673E-2,-2.2602368E-2,4.6165086E-2,-7.703376E-3,-3.860997E-2,3.889598E-2,8.661495E-2,-3.063512E-3,3.018363E-2,-3.1501982E-2,-6.853998E-2,1.6174866E-2,5.0790217E-2,1.6486717E-2,-3.798177E-2,-7.7150706E-3,2.4609543E-2,2.9075004E-2,6.5081837E-3,-3.116441E-2,3.225136E-3,-2.7067424E-3,6.298061E-2,1.5979767E-2,-5.7051186E-3,1.1572194E-2,2.1486767E-2,8.6344086E-4,-5.6669496E-2,5.49119E-2,-1.1151439E-2,-5.9649104E-4,4.5438338E-2,8.691156E-2,3.3662308E-2,-1.926949E-2,-8.37405E-2,1.7677927E-2,-2.4649896E-2],"categories":[],"categories_nodes":[],"categories_segments":[],"categories_sizes":[],"default_left":[0,0,0,0,0,0,0,0,0,0,0,0,0,0,0,0,0,0,0,0,0,0,0,0,0,0,0,0,0,0,0,0,0,0,0,0,0,0,0,0,0,0,0,0,0,0,0,0,0,0,0,0,0,0,0,0,0,0,0,0,0,0,0,0,0,0,0,0,0,0,0,0,0,0,0,0,0,0,0,0,0,0,0,0,0,0,0,0,0,0,0,0,0,0,0,0,0,0,0,0,0,0,0,0,0],"id":16,"left_children":[1,3,5,7,9,11,13,15,17,19,21,23,25,27,29,31,33,35,37,39,41,43,45,47,49,-1,-1,51,53,55,57,59,61,63,65,67,69,71,73,75,-1,77,79,-1,-1,-1,81,83,85,87,89,-1,91,93,95,97,99,101,103,-1,-1,-1,-1,-1,-1,-1,-1,-1,-1,-1,-1,-1,-1,-1,-1,-1,-1,-1,-1,-1,-1,-1,-1,-1,-1,-1,-1,-1,-1,-1,-1,-1,-1,-1,-1,-1,-1,-1,-1,-1,-1,-1,-1,-1,-1],"loss_changes":[1.3321799E-1,2.3073812E-1,1.2702075E-1,4.7430825E-1,2.2313213E-1,1.1722183E-1,1.1116619E-1,3.0505076E-1,1.1857805E-1,7.790902E-2,2.6566267E-1,9.035554E-2,5.6470186E-3,1.0622965E-1,1.0855695E-1,2.4174611E-1,2.3240972E-1,1.7295092E-1,6.3126415E-2,1.6847938E-2,3.049797E-1,5.3068995E-4,1.6289414E-1,3.6364228E-2,5.8035076E-2,0E0,0E0,3.9109915E-2,1.6136596E-1,4.141963E-1,1.0526228E-1,1.6469274E-1,2.627897E-1,4.4070244E-1,1.15733124E-1,1.8434325E-1,3.4669712E-3,1.4632434E-2,1.2609839E-2,8.895755E-3,0E0,1.7026812E-2,4.797122E-2,0E0,0E0,0E0,2.6179342E-2,1.2077428E-3,3.5737567E-2,4.4387206E-2,7.485343E-3,0E0,1.8922985E-4,1.8281439E-1,1.3783741E-1,1.7458901E-1,1.0496068E-1,3.9426416E-2,1.3269956E-1,0E0,0E0,0E0,0E0,0E0,0E0,0E0,0E0,0E0,0E0,0E0,0E0,0E0,0E0,0E0,0E0,0E0,0E0,0E0,0E0,0E0,0E0,0E0,0E0,0E0,0E0,0E0,0E0,0E0,0E0,0E0,0E0,0E0,0E0,0E0,0E0,0E0,0E0,0E0,0E0,0E0,0E0,0E0,0E0,0E0,0E0],"parents":[2147483647,0,0,1,1,2,2,3,3,4,4,5,5,6,6,7,7,8,8,9,9,10,10,11,11,12,12,13,13,14,14,15,15,16,16,17,17,18,18,19,19,20,20,21,21,22,22,23,23,24,24,27,27,28,28,29,29,30,30,31,31,32,32,33,33,34,34,35,35,36,36,37,37,38,38,39,39,41,41,42,42,46,46,47,47,48,48,49,49,50,50,52,52,53,53,54,54,55,55,56,56,57,57,58,58],"right_children":[2,4,6,8,10,12,14,16,18,20,22,24,26,28,30,32,34,36,38,40,42,44,46,48,50,-1,-1,52,54,56,58,60,62,64,66,68,70,72,74,76,-1,78,80,-1,-1,-1,82,84,86,88,90,-1,92,94,96,98,100,102,104,-1,-1,-1,-1,-1,-1,-1,-1,-1,-1,-1,-1,-1,-1,-1,-1,-1,-1,-1,-1,-1,-1,-1,-1,-1,-1,-1,-1,-1,-1,-1,-1,-1,-1,-1,-1,-1,-1,-1,-1,-1,-1,-1,-1,-1,-1],"split_conditions":[1.58E2,1.38E2,1E0,1.28E2,6.4546764E-1,-1.2157451E-2,2E0,9.9E1,-2.5923058E-1,1.43E2,8E0,1.71E2,1.3E1,1.81E2,1.580974E-1,8E1,1.6078619E0,-4.2393884E-1,8.621769E-1,5.7223296E-1,1.45E2,3E0,7.3666406E-1,-1.1693014E0,1.96E2,8.383537E-2,2.0630337E-2,-1.2479781E0,2.11E2,-4.2379555E-1,2.7404338E-1,2E1,8.9E1,2E0,3E0,1E0,-9.3118936E-1,-1.3822104E-2,5.3160036E-1,1.4E2,-1.5535927E-2,-5.341218E-1,-1.5632708E0,-6.9308676E-2,-2.5155772E-2,9.7099446E-2,7.012779E-1,1.68E2,-4.6744627E-1,-1.6558369E0,-3.7772214E-1,-1.5913546E-2,-8.476598E-1,-7.3118E-1,2E0,3.2726046E-1,-3.7177294E-1,-8.8345826E-2,2.7573815E-1,1.0631011E-2,-6.857638E-3,3.4572218E-2,-2.188102E-3,-4.2268828E-2,8.958776E-4,1.38882E-2,-6.13673E-2,-2.2602368E-2,4.6165086E-2,-7.703376E-3,-3.860997E-2,3.889598E-2,8.661495E-2,-3.063512E-3,3.018363E-2,-3.1501982E-2,-6.853998E-2,1.6174866E-2,5.0790217E-2,1.6486717E-2,-3.798177E-2,-7.7150706E-3,2.4609543E-2,2.9075004E-2,6.5081837E-3,-3.116441E-2,3.225136E-3,-2.7067424E-3,6.298061E-2,1.5979767E-2,-5.7051186E-3,1.1572194E-2,2.1486767E-2,8.6344086E-4,-5.6669496E-2,5.49119E-2,-1.1151439E-2,-5.9649104E-4,4.5438338E-2,8.691156E-2,3.3662308E-2,-1.926949E-2,-8.37405E-2,1.7677927E-2,-2.4649896E-2],"split_indices":[2,2,0,2,6,6,0,2,3,2,1,2,1,2,6,2,4,4,3,3,2,0,6,3,2,0,0,4,2,6,6,2,2,0,0,0,3,3,4,2,0,5,3,0,0,0,4,2,3,4,3,0,3,6,1,3,6,4,3,0,0,0,0,0,0,0,0,0,0,0,0,0,0,0,0,0,0,0,0,0,0,0,0,0,0,0,0,0,0,0,0,0,0,0,0,0,0,0,0,0,0,0,0,0,0],"split_type":[0,0,0,0,0,0,0,0,0,0,0,0,0,0,0,0,0,0,0,0,0,0,0,0,0,0,0,0,0,0,0,0,0,0,0,0,0,0,0,0,0,0,0,0,0,0,0,0,0,0,0,0,0,0,0,0,0,0,0,0,0,0,0,0,0,0,0,0,0,0,0,0,0,0,0,0,0,0,0,0,0,0,0,0,0,0,0,0,0,0,0,0,0,0,0,0,0,0,0,0,0,0,0,0,0],"sum_hessian":[7.72E2,5.37E2,2.35E2,4.78E2,5.9E1,2.7E1,2.08E2,4.42E2,3.6E1,4.6E1,1.3E1,2.4E1,3E0,4.7E1,1.61E2,3.31E2,1.11E2,2.1E1,1.5E1,1.1E1,3.5E1,3E0,1E1,1.4E1,1E1,2E0,1E0,1.5E1,3.2E1,1.32E2,2.9E1,2.62E2,6.9E1,8.6E1,2.5E1,1.7E1,4E0,8E0,7E0,9E0,2E0,7E0,2.8E1,1E0,2E0,2E0,8E0,3E0,1.1E1,6E0,4E0,3E0,1.2E1,2E1,1.2E1,1.08E2,2.4E1,4E0,2.5E1,6.3E1,1.99E2,3.6E1,3.3E1,4.9E1,3.7E1,2.4E1,1E0,4E0,1.3E1,1E0,3E0,4E0,4E0,1E0,6E0,4E0,5E0,5E0,2E0,1E0,2.7E1,3E0,5E0,2E0,1E0,3E0,8E0,1E0,5E0,2E0,2E0,5E0,7E0,8E0,1.2E1,3E0,9E0,1.01E2,7E0,4E0,2E1,3E0,1E0,1.4E1,1.1E1],"tree_param":{"num_deleted":"0","num_feature":"7","num_nodes":"105","size_leaf_vector":"1"}},{"base_weights":[5.8726675E-4,2.6428524E-2,-4.390768E-3,1.865942E-2,7.703373E-2,-1.17978685E-1,-2.0657543E-3,8.0382675E-3,1.1535013E-1,-5.6680277E-2,-5.0014675E-2,6.267765E-2,-3.393671E-3,2.6198706E-2,-6.6619806E-2,1.5589197E-1,4.8826296E-2,-7.063886E-2,1.4153195E-2,-2.2647777E-3,-1.211737E-1,-2.9173938E-3,6.995389E-2,-1.8025814E-1,-1.2739301E-2,7.71153E-3,5.199168E-2,-3.4674168E-2,4.316545E-2,6.8819765E-3,-9.005865E-2,-4.3482073E-3,6.1393064E-2,-4.313588E-4,-7.253168E-2,6.90062E-3,-1.01742305E-1,-7.653566E-2,2.595924E-2,-1.981659E-2,-6.381847E-2,-3.0757314E-2,7.719827E-3,-1.50341755E-2,-3.8468838E-3,-5.182457E-3,-3.034813E-2,-2.5443057E-2,-4.8538213E-4,-2.1411128E-2,3.312168E-2,1.7563821E-3,-1.343465E-3],"categories":[],"categories_nodes":[],"categories_segments":[],"categories_sizes":[],"default_left":[0,0,0,0,0,0,0,0,0,0,0,0,0,0,0,0,0,0,0,0,0,0,0,0,0,0,0,0,0,0,0,0,0,0,0,0,0,0,0,0,0,0,0,0,0,0,0,0,0,0,0,0,0],"id":17,"left_children":[1,3,5,7,-1,9,11,13,15,-1,17,-1,19,21,23,25,27,29,-1,31,33,35,37,39,41,-1,-1,43,-1,-1,45,47,49,51,-1,-1,-1,-1,-1,-1,-1,-1,-1,-1,-1,-1,-1,-1,-1,-1,-1,-1,-1],"loss_changes":[9.955373E-2,2.1891084E-1,1.7115293E-1,1.2436272E-1,0E0,5.3242028E-2,1.7918292E-1,1.5224174E-1,2.4752364E-2,0E0,1.9368596E-2,0E0,8.40229E-2,1.1486231E-1,1.3240722E-1,1.1414334E-2,5.2613664E-2,1.4786899E-2,0E0,8.36891E-2,8.7263815E-2,4.8711133E-1,2.1606879E-1,1.1905402E-2,5.79057E-2,0E0,0E0,7.069018E-4,0E0,0E0,3.1006485E-3,1.3386922E-1,1.3802114E-1,1.2797181E-4,0E0,0E0,0E0,0E0,0E0,0E0,0E0,0E0,0E0,0E0,0E0,0E0,0E0,0E0,0E0,0E0,0E0,0E0,0E0],"parents":[2147483647,0,0,1,1,2,2,3,3,5,5,6,6,7,7,8,8,10,10,12,12,13,13,14,14,15,15,16,16,17,17,19,19,20,20,21,21,22,22,23,23,24,24,27,27,30,30,31,31,32,32,33,33],"right_children":[2,4,6,8,-1,10,12,14,16,-1,18,-1,20,22,24,26,28,30,-1,32,34,36,38,40,42,-1,-1,44,-1,-1,46,48,50,52,-1,-1,-1,-1,-1,-1,-1,-1,-1,-1,-1,-1,-1,-1,-1,-1,-1,-1,-1],"split_conditions":[-1.0550424E0,-1.0873944E0,-1.0154423E0,-7.530234E-1,7.703373E-2,9.2E1,-1.080341E0,-1.1916147E0,-9.478857E-1,-5.6680277E-2,-9.881007E-1,6.267765E-2,2.5609825E0,-1.3723528E0,-1.3902694E0,-1.2800905E0,-1.120327E0,-1.0545307E0,1.4153195E-2,1.8106747E0,1E0,-1.394912E0,-2.015213E0,1.46E2,-1.1780765E0,7.71153E-3,5.199168E-2,2E0,4.316545E-2,6.8819765E-3,1E0,-1.0648466E0,1E0,1.1414164E0,-7.253168E-2,6.90062E-3,-1.01742305E-1,-7.653566E-2,2.595924E-2,-1.981659E-2,-6.381847E-2,-3.0757314E-2,7.719827E-3,-1.50341755E-2,-3.8468838E-3,-5.182457E-3,-3.034813E-2,-2.5443057E-2,-4.8538213E-4,-2.1411128E-2,3.312168E-2,1.7563821E-3,-1.343465E-3],"split_indices":[5,5,5,6,0,2,4,4,4,0,3,0,6,6,3,5,5,4,0,3,0,6,5,2,4,0,0,0,0,0,0,6,0,3,0,0,0,0,0,0,0,0,0,0,0,0,0,0,0,0,0,0,0],"split_type":[0,0,0,0,0,0,0,0,0,0,0,0,0,0,0,0,0,0,0,0,0,0,0,0,0,0,0,0,0,0,0,0,0,0,0,0,0,0,0,0,0,0,0,0,0,0,0,0,0,0,0,0,0],"sum_hessian":[7.72E2,1.24E2,6.48E2,1.21E2,3E0,1.2E1,6.36E2,1.1E2,1.1E1,5E0,7E0,3E0,6.33E2,8.9E1,2.1E1,6E0,5E0,6E0,1E0,6.28E2,5E0,5.4E1,3.5E1,6E0,1.5E1,1E0,5E0,3E0,2E0,1E0,5E0,6.09E2,1.9E1,3E0,2E0,5.1E1,3E0,1E0,3.4E1,2E0,4E0,4E0,1.1E1,1E0,2E0,1E0,4E0,1.9E1,5.9E2,5E0,1.4E1,1E0,2E0],"tree_param":{"num_deleted":"0","num_feature":"7","num_nodes":"53","size_leaf_vector":"1"}},{"base_weights":[1.7061764E-4,1.22592166E-1,-6.2558305E-4,5.2070264E-2,-1.2196398E-2,-9.9395355E-3,9.657101E-3,-2.0849763E-3,-2.1349543E-1,1.5096503E-1,6.4812778E-3,-5.665152E-3,1.11162655E-1,-8.732667E-2,-4.8590463E-2,7.539511E-2,2.0768619E-1,4.3375096E-3,1.3188338E-1,1.6983502E-3,-8.8381186E-2,2.3899242E-1,-1.1559751E-1,-3.2652854E-3,-4.1282453E-2,-8.322144E-3,3.243424E-2,1.4331007E-2,7.3520474E-2,-6.7979004E-3,2.3812432E-2,1.7698606E-2,5.536534E-2,-6.192934E-4,4.8701953E-2,-1.2848584E-1,-6.6487356E-3,-1.4744211E-2,8.61529E-2,-6.82947E-2,-9.20172E-3,-1.2652267E-2,2.2855569E-2,-3.603943E-2,3.7591413E-4,2.9762637E-2,-1.1116808E-5,-2.6962997E-3,1.0660673E-2],"categories":[],"categories_nodes":[],"categories_segments":[],"categories_sizes":[],"default_left":[0,0,0,0,0,0,0,0,0,0,0,0,0,0,0,0,0,0,0,0,0,0,0,0,0,0,0,0,0,0,0,0,0,0,0,0,0,0,0,0,0,0,0,0,0,0,0,0,0],"id":18,"left_children":[1,3,5,-1,-1,7,9,11,13,15,17,19,21,-1,23,25,27,29,31,33,35,37,39,41,-1,-1,-1,-1,-1,43,45,47,-1,-1,-1,-1,-1,-1,-1,-1,-1,-1,-1,-1,-1,-1,-1,-1,-1],"loss_changes":[7.542264E-2,4.8664168E-2,7.374499E-2,0E0,0E0,6.4548695E-1,1.6327101E-1,1.5875386E-1,1.7778903E-1,1.86328E-2,9.593901E-2,2.309913E-1,3.754673E-1,0E0,2.3759127E-2,1.9871613E-2,1.2205064E-2,7.693076E-2,3.2816827E-2,2.1128452E-1,6.8825847E-1,1.2518355E-1,4.059737E-2,1.8669726E-2,0E0,0E0,0E0,0E0,0E0,2.0636247E-1,2.3196691E-1,1.7473884E-3,0E0,0E0,0E0,0E0,0E0,0E0,0E0,0E0,0E0,0E0,0E0,0E0,0E0,0E0,0E0,0E0,0E0],"parents":[2147483647,0,0,1,1,2,2,5,5,6,6,7,7,8,8,9,9,10,10,11,11,12,12,14,14,15,15,16,16,17,17,18,18,19,19,20,20,21,21,22,22,23,23,29,29,30,30,31,31],"right_children":[2,4,6,-1,-1,8,10,12,14,16,18,20,22,-1,24,26,28,30,32,34,36,38,40,42,-1,-1,-1,-1,-1,44,46,48,-1,-1,-1,-1,-1,-1,-1,-1,-1,-1,-1,-1,-1,-1,-1,-1,-1],"split_conditions":[-2.3193464E0,1.62E2,1.13E2,5.2070264E-2,-1.2196398E-2,1.09E2,1.15E2,1.06E2,1.1494247E0,3E0,3.3E1,1.02E2,1.1312155E0,-8.732667E-2,3E0,-6.1222845E-1,-1.1769E0,-2.0375577E-1,1.59E2,1.01E2,1.1075481E0,-2.1442436E-1,1.1386933E0,1.5637069E0,-4.1282453E-2,-8.322144E-3,3.243424E-2,1.4331007E-2,7.3520474E-2,1.28E2,1.37E2,9.544384E-2,5.536534E-2,-6.192934E-4,4.8701953E-2,-1.2848584E-1,-6.6487356E-3,-1.4744211E-2,8.61529E-2,-6.82947E-2,-9.20172E-3,-1.2652267E-2,2.2855569E-2,-3.603943E-2,3.7591413E-4,2.9762637E-2,-1.1116808E-5,-2.6962997E-3,1.0660673E-2],"split_indices":[3,2,2,0,0,2,2,2,4,0,1,2,4,0,0,5,3,6,2,2,6,3,4,4,0,0,0,0,0,2,2,3,0,0,0,0,0,0,0,0,0,0,0,0,0,0,0,0,0],"split_type":[0,0,0,0,0,0,0,0,0,0,0,0,0,0,0,0,0,0,0,0,0,0,0,0,0,0,0,0,0,0,0,0,0,0,0,0,0,0,0,0,0,0,0,0,0,0,0,0,0],"sum_hessian":[7.72E2,4E0,7.68E2,3E0,1E0,4.03E2,3.65E2,3.89E2,1.4E1,7E0,3.58E2,3.78E2,1.1E1,9E0,5E0,4E0,3E0,3.53E2,5E0,3.48E2,3E1,7E0,4E0,4E0,1E0,1E0,3E0,1E0,2E0,2.25E2,1.28E2,2E0,3E0,3.41E2,7E0,4E0,2.6E1,1E0,6E0,1E0,3E0,3E0,1E0,1.4E1,2.11E2,3E1,9.8E1,1E0,1E0],"tree_param":{"num_deleted":"0","num_feature":"7","num_nodes":"49","size_leaf_vector":"1"}},{"base_weights":[1.1655152E-4,1.7021194E-2,-5.231034E-3,-1.5907565E-2,4.6119273E-2,-2.6933178E-2,6.2818713E-3,-3.6188263E-2,8.520438E-2,1.1260657E-1,-2.8218618E-3,6.336567E-2,-3.8757704E-2,9.031046E-3,-1.4346375E-1,-7.752499E-2,5.316013E-2,-3.4043133E-2,1.9380134E-1,4.4588227E-2,1.9259782E-1,9.2111826E-2,-1.765809E-2,5.1588384E-3,2.3712635E-1,-1.0860543E-1,-2.0667195E-2,6.575114E-3,1.6061233E-1,-1.8416928E-1,1.5115429E-2,-1.15440406E-1,-3.0060137E-2,2.466948E-2,1.5649071E-1,-7.432346E-2,2.4818063E-2,2.592071E-1,-1.610597E-3,1.22681774E-1,-2.1261573E-3,1.3974692E-1,9.378929E-2,5.268226E-2,3.5012007E-2,-1.12253904E-1,-5.7530673E-5,-1.0944475E-1,6.647163E-2,2.9719377E-2,1.0264998E-1,-4.0319826E-2,-2.0606966E-1,-3.225714E-2,6.849574E-2,4.409402E-3,1.19490385E-1,5.229033E-2,1.38252685E-2,-1.4983715E-2,-6.030746E-2,-1.6071783E-2,-7.9023995E-2,2.491851E-2,-2.7543724E-2,2.1948565E-3,5.3157307E-2,6.070694E-2,-4.045844E-3,1.0031176E-2,-4.7192913E-2,2.2690631E-2,-5.1998617E-3,4.1460946E-2,1.00242995E-1,1.9845488E-3,-2.7093173E-3,-3.4191608E-3,4.8785474E-2,-3.1059492E-2,2.072109E-2,7.901747E-2,-4.0982367E-4,5.5602267E-3,1.761024E-2,-1.3769192E-2,-4.286652E-2,6.414199E-2,-3.0010089E-3,-1.2577105E-2,-3.8420536E-2,-1.5979528E-2,3.7681893E-2,-3.272846E-2,6.872678E-2,-1.0631174E-1,-2.0347929E-2,-5.1246686E-3,-2.3316685E-2,-1.2941752E-2,3.1849004E-2,5.608442E-3,-3.7016585E-3,4.889946E-2,1.3832993E-2],"categories":[],"categories_nodes":[],"categories_segments":[],"categories_sizes":[],"default_left":[0,0,0,0,0,0,0,0,0,0,0,0,0,0,0,0,0,0,0,0,0,0,0,0,0,0,0,0,0,0,0,0,0,0,0,0,0,0,0,0,0,0,0,0,0,0,0,0,0,0,0,0,0,0,0,0,0,0,0,0,0,0,0,0,0,0,0,0,0,0,0,0,0,0,0,0,0,0,0,0,0,0,0,0,0,0,0,0,0,0,0,0,0,0,0,0,0,0,0,0,0,0,0,0,0],"id":19,"left_children":[1,3,5,7,9,11,13,15,17,19,21,23,25,27,29,31,33,35,37,39,41,43,45,47,49,51,53,55,57,59,-1,61,63,65,67,69,71,73,75,77,79,81,-1,-1,83,85,87,89,91,-1,-1,93,95,97,99,101,103,-1,-1,-1,-1,-1,-1,-1,-1,-1,-1,-1,-1,-1,-1,-1,-1,-1,-1,-1,-1,-1,-1,-1,-1,-1,-1,-1,-1,-1,-1,-1,-1,-1,-1,-1,-1,-1,-1,-1,-1,-1,-1,-1,-1,-1,-1,-1,-1],"loss_changes":[6.9967486E-2,1.789521E-1,1.4708379E-1,1.8353803E-1,3.2246017E-1,2.2027504E-1,1.5979123E-1,2.7743065E-1,2.0084637E-1,2.1992904E-1,8.331708E-2,2.4151415E-1,2.2646359E-1,1.4003557E-1,6.451428E-2,8.831194E-2,6.679439E-2,2.0812154E-2,1.0266599E-1,8.781506E-2,7.6844156E-2,3.199234E-2,8.4905446E-2,1.4078164E-1,5.3115636E-2,2.3794124E-1,1.5205151E-1,9.09318E-2,1.3739765E-3,3.534153E-3,0E0,2.4222144E-1,1.7527883E-1,5.1638655E-2,4.1709602E-2,4.9973276E-2,9.878978E-3,8.225828E-3,2.4285866E-4,5.0045148E-2,1.22666314E-1,2.6207775E-1,0E0,0E0,1.2540864E-3,9.704225E-3,9.572929E-2,3.4333318E-3,9.873811E-2,0E0,0E0,4.511507E-1,2.8349203E-1,8.767325E-2,7.606513E-2,8.827677E-2,1.4832504E-2,0E0,0E0,0E0,0E0,0E0,0E0,0E0,0E0,0E0,0E0,0E0,0E0,0E0,0E0,0E0,0E0,0E0,0E0,0E0,0E0,0E0,0E0,0E0,0E0,0E0,0E0,0E0,0E0,0E0,0E0,0E0,0E0,0E0,0E0,0E0,0E0,0E0,0E0,0E0,0E0,0E0,0E0,0E0,0E0,0E0,0E0,0E0,0E0],"parents":[2147483647,0,0,1,1,2,2,3,3,4,4,5,5,6,6,7,7,8,8,9,9,10,10,11,11,12,12,13,13,14,14,15,15,16,16,17,17,18,18,19,19,20,20,21,21,22,22,23,23,24,24,25,25,26,26,27,27,28,28,29,29,31,31,32,32,33,33,34,34,35,35,36,36,37,37,38,38,39,39,40,40,41,41,44,44,45,45,46,46,47,47,48,48,51,51,52,52,53,53,54,54,55,55,56,56],"right_children":[2,4,6,8,10,12,14,16,18,20,22,24,26,28,30,32,34,36,38,40,42,44,46,48,50,52,54,56,58,60,-1,62,64,66,68,70,72,74,76,78,80,82,-1,-1,84,86,88,90,92,-1,-1,94,96,98,100,102,104,-1,-1,-1,-1,-1,-1,-1,-1,-1,-1,-1,-1,-1,-1,-1,-1,-1,-1,-1,-1,-1,-1,-1,-1,-1,-1,-1,-1,-1,-1,-1,-1,-1,-1,-1,-1,-1,-1,-1,-1,-1,-1,-1,-1,-1,-1,-1,-1],"split_conditions":[1E0,2.0568585E-1,2E0,1.7E1,9.6E1,2E1,1.947064E0,1.57E2,-8.000693E-1,4.6E1,3.8510486E-1,1.9E1,6E1,1.893659E0,2.3662376E0,7.639828E-2,1.95E2,9.2E1,-3.8025206E-1,3.1E1,6.505886E-1,1.3E1,6.5830886E-1,3.096525E-1,-7.2525424E-1,5.3E1,1.3219739E0,1.7375497E0,5E0,3E0,1.5115429E-2,1.5E1,1.3486899E-2,-3.299005E-1,7.0397115E-1,-1.2597378E0,9.3E1,-9.044129E-1,2E1,-1.578985E-1,2.526356E-1,4.2018607E-1,9.378929E-2,5.268226E-2,1.5E1,5.784516E-1,-1.3205722E-1,-7.145057E-1,7.4503E-1,2.9719377E-2,1.0264998E-1,4.2E1,6.027683E-1,4.0690717E-1,-9.9728055E-2,-1.5410791E-1,1.6822882E0,5.229033E-2,1.38252685E-2,-1.4983715E-2,-6.030746E-2,-1.6071783E-2,-7.9023995E-2,2.491851E-2,-2.7543724E-2,2.1948565E-3,5.3157307E-2,6.070694E-2,-4.045844E-3,1.0031176E-2,-4.7192913E-2,2.2690631E-2,-5.1998617E-3,4.1460946E-2,1.00242995E-1,1.9845488E-3,-2.7093173E-3,-3.4191608E-3,4.8785474E-2,-3.1059492E-2,2.072109E-2,7.901747E-2,-4.0982367E-4,5.5602267E-3,1.761024E-2,-1.3769192E-2,-4.286652E-2,6.414199E-2,-3.0010089E-3,-1.2577105E-2,-3.8420536E-2,-1.5979528E-2,3.7681893E-2,-3.272846E-2,6.872678E-2,-1.0631174E-1,-2.0347929E-2,-5.1246686E-3,-2.3316685E-2,-1.2941752E-2,3.1849004E-2,5.608442E-3,-3.7016585E-3,4.889946E-2,1.3832993E-2],"split_indices":[0,6,0,1,2,2,4,2,6,2,6,2,2,6,4,3,2,2,4,2,4,1,6,6,4,2,3,3,1,0,0,1,4,6,3,3,2,4,1,3,3,5,0,0,1,6,3,3,4,0,0,2,4,6,6,5,5,0,0,0,0,0,0,0,0,0,0,0,0,0,0,0,0,0,0,0,0,0,0,0,0,0,0,0,0,0,0,0,0,0,0,0,0,0,0,0,0,0,0,0,0,0,0,0,0],"split_type":[0,0,0,0,0,0,0,0,0,0,0,0,0,0,0,0,0,0,0,0,0,0,0,0,0,0,0,0,0,0,0,0,0,0,0,0,0,0,0,0,0,0,0,0,0,0,0,0,0,0,0,0,0,0,0,0,0,0,0,0,0,0,0,0,0,0,0,0,0,0,0,0,0,0,0,0,0,0,0,0,0,0,0,0,0,0,0,0,0,0,0,0,0,0,0,0,0,0,0,0,0,0,0,0,0],"sum_hessian":[7.72E2,1.85E2,5.87E2,8.7E1,9.8E1,2.03E2,3.84E2,7.3E1,1.4E1,4.1E1,5.7E1,2.3E1,1.8E2,3.78E2,6E0,5E1,2.3E1,7E0,7E0,2.3E1,1.8E1,7E0,5E1,1.8E1,5E0,3.6E1,1.44E2,3.73E2,5E0,5E0,1E0,2.7E1,2.3E1,1.9E1,4E0,4E0,3E0,5E0,2E0,8E0,1.5E1,1.4E1,4E0,2E0,5E0,7E0,4.3E1,6E0,1.2E1,3E0,2E0,2.2E1,1.4E1,1.28E2,1.6E1,3.67E2,6E0,4E0,1E0,1E0,4E0,2E1,7E0,8E0,1.5E1,1.8E1,1E0,3E0,1E0,2E0,2E0,1E0,2E0,3E0,2E0,1E0,1E0,2E0,6E0,6E0,9E0,7E0,7E0,4E0,1E0,3E0,4E0,1E0,4.2E1,2E0,4E0,4E0,8E0,1.8E1,4E0,6E0,8E0,9.7E1,3.1E1,4E0,1.2E1,1.98E2,1.69E2,3E0,3E0],"tree_param":{"num_deleted":"0","num_feature":"7","num_nodes":"105","size_leaf_vector":"1"}},{"base_weights":[7.242822E-4,-5.7977233E-2,1.8046729E-3,-8.2611285E-2,5.988471E-2,4.1160524E-2,-1.0248385E-3,-1.476266E-1,-1.5082257E-2,3.6728385E-4,2.6580835E-2,2.1106241E-2,1.8804996E-1,-9.976679E-2,1.8345881E-3,-5.2665677E-2,-6.118353E-2,-4.073286E-2,9.808851E-3,-9.588126E-2,4.1051395E-2,2.3032524E-2,8.211994E-2,-1.0992056E-1,1.3973237E-2,-5.680499E-3,1.5197436E-2,5.665112E-3,-3.31977E-2,6.708813E-3,-1.862923E-2,2.6137305E-2,-5.5952515E-2,5.324359E-2,-3.8120043E-2,-2.3809114E-2,-1.38974E-1,4.7264836E-4,-1.13123894E-1,2.0455265E-1,1.2056711E-2,1.0812856E-2,5.7131734E-2,-2.614277E-2,4.392872E-2,-6.9563515E-2,-2.3587326E-2,-3.3637194E-4,4.9955197E-2,-6.95615E-2,-7.925139E-3,1.8430926E-2,6.953378E-2,1.1936286E-2,-3.3116948E-3],"categories":[],"categories_nodes":[],"categories_segments":[],"categories_sizes":[],